<?xml version="1.0"?>
<opencv_storage>
<my_svm type_id="opencv-ml-svm">
  <svm_type>C_SVC</svm_type>
  <kernel><type>LINEAR</type></kernel>
  <C>1.</C>
  <term_criteria><epsilon>2.2204460492503131e-16</epsilon>
    <iterations>100</iterations></term_criteria>
  <var_all>160000</var_all>
  <var_count>160000</var_count>
  <class_count>2</class_count>
  <class_labels type_id="opencv-matrix">
    <rows>1</rows>
    <cols>2</cols>
    <dt>i</dt>
    <data>
      1 2</data></class_labels>
  <sv_total>1</sv_total>
  <support_vectors>
    <_>
      1.94522030e-07 1.99574558e-07 1.97048294e-07 1.97048294e-07
      1.97048294e-07 1.94522030e-07 1.89469517e-07 1.91995767e-07
      1.91995767e-07 1.91995767e-07 1.99574558e-07 1.99574558e-07
      1.97048294e-07 1.91995767e-07 1.89469517e-07 1.84416990e-07
      1.76838213e-07 1.74311950e-07 1.79364477e-07 1.81890726e-07
      1.76838213e-07 1.76838213e-07 1.84416990e-07 1.84416990e-07
      1.84416990e-07 1.89469517e-07 1.79364477e-07 1.76838213e-07
      1.79364477e-07 1.74311950e-07 1.61680646e-07 1.69259437e-07
      1.64206909e-07 1.64206909e-07 1.71785686e-07 1.66733173e-07
      1.69259437e-07 1.71785686e-07 1.69259437e-07 1.66733173e-07
      1.66733173e-07 1.61680646e-07 1.59154396e-07 1.66733173e-07
      1.69259437e-07 1.69259437e-07 1.64206909e-07 1.59154396e-07
      1.51575605e-07 1.46523092e-07 1.51575605e-07 1.51575605e-07
      1.56628133e-07 1.66733173e-07 1.64206909e-07 1.56628133e-07
      1.49049356e-07 1.36418052e-07 1.36418052e-07 1.33891788e-07
      1.33891788e-07 1.33891788e-07 1.31365525e-07 1.31365525e-07
      1.31365525e-07 1.33891788e-07 1.28839275e-07 1.23786748e-07
      1.26313012e-07 1.21260484e-07 1.23786748e-07 1.33891788e-07
      1.28839275e-07 1.28839275e-07 1.28839275e-07 1.31365525e-07
      1.23786748e-07 1.26313012e-07 1.21260484e-07 1.23786748e-07
      1.36418052e-07 1.36418052e-07 1.43996829e-07 1.54101869e-07
      1.59154396e-07 1.66733173e-07 1.69259437e-07 1.69259437e-07
      1.66733173e-07 1.66733173e-07 1.71785686e-07 1.71785686e-07
      1.71785686e-07 1.69259437e-07 1.69259437e-07 1.79364477e-07
      1.81890726e-07 1.76838213e-07 1.76838213e-07 1.61680646e-07
      1.41470565e-07 9.34716269e-08 5.81039856e-08 5.30514619e-08
      6.06302422e-08 6.82090260e-08 6.56827623e-08 6.56827623e-08
      6.31565058e-08 6.06302422e-08 6.31565058e-08 6.56827623e-08
      7.07352825e-08 7.57878027e-08 7.83140663e-08 7.32615462e-08
      6.56827623e-08 6.56827623e-08 6.56827623e-08 6.06302422e-08
      5.55777255e-08 5.81039856e-08 5.81039856e-08 5.81039856e-08
      6.06302422e-08 5.81039856e-08 5.81039856e-08 6.06302422e-08
      5.81039856e-08 5.81039856e-08 5.81039856e-08 5.81039856e-08
      5.81039856e-08 5.81039856e-08 6.06302422e-08 6.56827623e-08
      6.31565058e-08 6.31565058e-08 6.56827623e-08 6.82090260e-08
      6.06302422e-08 6.06302422e-08 6.56827623e-08 6.31565058e-08
      6.56827623e-08 6.56827623e-08 6.06302422e-08 6.06302422e-08
      7.07352825e-08 7.83140663e-08 1.31365525e-07 1.79364477e-07
      2.12205848e-07 2.24837152e-07 2.12205848e-07 1.94522030e-07
      1.89469517e-07 1.99574558e-07 1.99574558e-07 1.97048294e-07
      1.91995767e-07 1.64206909e-07 1.16207971e-07 5.05252018e-08
      7.57878027e-09 2.02100807e-08 1.76838206e-08 2.52626009e-08
      4.29464215e-08 4.79989417e-08 6.82090260e-08 8.08403229e-08
      9.85241471e-08 1.13681708e-07 1.06102924e-07 1.13681708e-07
      7.32615462e-08 3.28413812e-08 5.05252018e-09 2.52626009e-09
      7.57878027e-09 1.01050404e-08 7.57878027e-09 1.01050404e-08
      1.26313005e-08 1.01050404e-08 1.51575605e-08 1.76838206e-08
      2.52626009e-08 3.78939014e-08 4.79989417e-08 5.81039856e-08
      6.56827623e-08 6.56827623e-08 6.31565058e-08 6.06302422e-08
      6.56827623e-08 6.56827623e-08 7.07352825e-08 9.09453632e-08
      1.13681708e-07 1.31365525e-07 1.03576667e-07 5.81039856e-08
      5.05252018e-08 5.81039856e-08 5.05252018e-08 5.05252018e-08
      4.79989417e-08 6.56827623e-08 9.34716269e-08 1.28839275e-07
      1.54101869e-07 1.46523092e-07 1.33891788e-07 1.23786748e-07
      1.06102924e-07 8.08403229e-08 6.56827623e-08 6.56827623e-08
      8.08403229e-08 1.01050404e-07 9.09453632e-08 6.31565058e-08
      6.31565058e-08 7.57878027e-08 9.34716269e-08 9.09453632e-08
      7.83140663e-08 7.32615462e-08 6.82090260e-08 7.57878027e-08
      7.83140663e-08 8.33665865e-08 7.07352825e-08 4.79989417e-08
      3.28413812e-08 2.52626009e-08 2.27363408e-08 3.28413812e-08
      4.29464215e-08 5.05252018e-08 6.82090260e-08 7.57878027e-08
      8.33665865e-08 7.83140663e-08 7.32615462e-08 6.82090260e-08
      6.06302422e-08 4.79989417e-08 4.29464215e-08 3.78939014e-08
      3.78939014e-08 4.04201614e-08 3.28413812e-08 2.52626009e-08
      3.03151211e-08 3.28413812e-08 3.53676413e-08 3.53676413e-08
      2.77888628e-08 2.27363408e-08 2.27363408e-08 1.76838206e-08
      2.52626009e-09 5.05252018e-09 1.01050404e-08 1.01050404e-08
      5.05252018e-09 7.57878027e-09 7.57878027e-09 1.26313005e-08
      1.76838206e-08 2.02100807e-08 2.52626009e-08 1.76838206e-08
      2.27363408e-08 2.77888628e-08 3.28413812e-08 2.77888628e-08
      2.02100807e-08 1.01050404e-08 1.01050404e-08 7.57878027e-09
      2.52626009e-09 7.57878027e-09 5.05252018e-09 5.05252018e-09
      1.01050404e-08 2.27363408e-08 5.05252018e-08 8.58928431e-08
      1.18734228e-07 1.41470565e-07 1.49049356e-07 1.64206909e-07
      1.69259437e-07 1.76838213e-07 1.84416990e-07 1.81890726e-07
      1.76838213e-07 1.71785686e-07 1.71785686e-07 1.59154396e-07
      1.31365525e-07 1.21260484e-07 9.59978834e-08 6.56827623e-08
      3.03151211e-08 1.26313005e-08 1.01050404e-08 1.26313005e-08
      1.01050404e-08 1.01050404e-08 1.01050404e-08 7.57878027e-09
      1.26313005e-08 1.51575605e-08 7.57878027e-09 1.26313005e-08
      2.52626009e-08 5.81039856e-08 9.34716269e-08 1.13681708e-07
      1.21260484e-07 1.18734228e-07 1.28839275e-07 1.21260484e-07
      1.01050404e-07 7.32615462e-08 4.54726816e-08 1.51575605e-08
      7.57878027e-09 7.57878027e-09 5.05252018e-09 2.52626009e-09
      5.05252018e-09 7.57878027e-09 5.05252018e-09 7.57878027e-09
      7.57878027e-09 1.01050404e-08 1.26313005e-08 1.26313005e-08
      1.01050404e-08 7.57878027e-09 7.57878027e-09 1.01050404e-08
      1.26313005e-08 1.51575605e-08 1.51575605e-08 2.27363408e-08
      2.52626009e-08 3.28413812e-08 6.56827623e-08 1.03576667e-07
      1.23786748e-07 1.46523092e-07 1.41470565e-07 1.31365525e-07
      1.18734228e-07 9.09453632e-08 6.82090260e-08 3.53676413e-08
      1.76838206e-08 2.52626009e-08 2.27363408e-08 4.04201614e-08
      7.57878027e-08 8.84191067e-08 9.34716269e-08 9.09453632e-08
      8.58928431e-08 8.08403229e-08 7.07352825e-08 5.81039856e-08
      5.55777255e-08 4.54726816e-08 3.03151211e-08 2.02100807e-08
      1.51575605e-08 1.01050404e-08 5.05252018e-09 5.05252018e-09
      7.57878027e-09 1.01050404e-08 2.02100807e-08 4.29464215e-08
      8.08403229e-08 1.08629187e-07 1.16207971e-07 1.08629187e-07
      9.34716269e-08 7.57878027e-08 6.56827623e-08 7.57878027e-08
      1.13681708e-07 1.64206909e-07 1.76838213e-07 1.69259437e-07
      2.07153334e-07 2.04627071e-07 1.99574558e-07 1.94522030e-07
      1.91995767e-07 1.91995767e-07 1.91995767e-07 1.94522030e-07
      1.94522030e-07 1.94522030e-07 1.97048294e-07 2.02100807e-07
      1.97048294e-07 1.91995767e-07 1.91995767e-07 1.89469517e-07
      1.84416990e-07 1.79364477e-07 1.81890726e-07 1.84416990e-07
      1.79364477e-07 1.76838213e-07 1.84416990e-07 1.84416990e-07
      1.94522030e-07 1.97048294e-07 1.99574558e-07 1.97048294e-07
      1.81890726e-07 1.74311950e-07 1.74311950e-07 1.74311950e-07
      1.74311950e-07 1.74311950e-07 1.76838213e-07 1.79364477e-07
      1.79364477e-07 1.79364477e-07 1.79364477e-07 1.74311950e-07
      1.71785686e-07 1.66733173e-07 1.66733173e-07 1.69259437e-07
      1.71785686e-07 1.71785686e-07 1.74311950e-07 1.71785686e-07
      1.64206909e-07 1.59154396e-07 1.56628133e-07 1.54101869e-07
      1.54101869e-07 1.59154396e-07 1.59154396e-07 1.56628133e-07
      1.54101869e-07 1.43996829e-07 1.46523092e-07 1.41470565e-07
      1.38944316e-07 1.41470565e-07 1.38944316e-07 1.33891788e-07
      1.31365525e-07 1.33891788e-07 1.31365525e-07 1.28839275e-07
      1.28839275e-07 1.26313012e-07 1.26313012e-07 1.31365525e-07
      1.26313012e-07 1.28839275e-07 1.33891788e-07 1.33891788e-07
      1.28839275e-07 1.33891788e-07 1.28839275e-07 1.21260484e-07
      1.28839275e-07 1.31365525e-07 1.33891788e-07 1.36418052e-07
      1.36418052e-07 1.46523092e-07 1.56628133e-07 1.61680646e-07
      1.66733173e-07 1.74311950e-07 1.76838213e-07 1.74311950e-07
      1.74311950e-07 1.71785686e-07 1.76838213e-07 1.79364477e-07
      1.81890726e-07 1.74311950e-07 1.61680646e-07 1.33891788e-07
      9.34716269e-08 6.82090260e-08 5.81039856e-08 6.31565058e-08
      6.56827623e-08 6.82090260e-08 6.56827623e-08 6.56827623e-08
      6.31565058e-08 6.06302422e-08 6.06302422e-08 6.56827623e-08
      7.32615462e-08 7.83140663e-08 7.57878027e-08 7.07352825e-08
      6.31565058e-08 6.06302422e-08 6.31565058e-08 6.06302422e-08
      5.81039856e-08 6.06302422e-08 5.81039856e-08 5.55777255e-08
      5.81039856e-08 6.06302422e-08 5.81039856e-08 5.81039856e-08
      5.81039856e-08 5.81039856e-08 6.06302422e-08 6.56827623e-08
      6.56827623e-08 6.31565058e-08 6.06302422e-08 6.56827623e-08
      6.31565058e-08 6.31565058e-08 6.31565058e-08 6.31565058e-08
      6.06302422e-08 6.06302422e-08 6.56827623e-08 6.31565058e-08
      5.81039856e-08 5.55777255e-08 6.06302422e-08 6.31565058e-08
      8.08403229e-08 1.13681708e-07 1.54101869e-07 1.99574558e-07
      2.14732111e-07 2.12205848e-07 1.99574558e-07 1.84416990e-07
      1.86943254e-07 1.99574558e-07 1.97048294e-07 1.81890726e-07
      1.59154396e-07 1.18734228e-07 7.07352825e-08 2.77888628e-08
      1.51575605e-08 2.27363408e-08 2.77888628e-08 3.53676413e-08
      4.54726816e-08 6.06302422e-08 8.58928431e-08 1.03576667e-07
      1.11155451e-07 1.11155451e-07 1.08629187e-07 8.84191067e-08
      4.29464215e-08 1.26313005e-08 0. 2.52626009e-09 1.01050404e-08
      1.01050404e-08 7.57878027e-09 1.01050404e-08 1.01050404e-08
      7.57878027e-09 1.76838206e-08 2.52626009e-08 3.28413812e-08
      4.54726816e-08 4.79989417e-08 5.30514619e-08 5.81039856e-08
      5.81039856e-08 5.81039856e-08 5.55777255e-08 6.31565058e-08
      7.57878027e-08 9.34716269e-08 1.16207971e-07 1.23786748e-07
      8.84191067e-08 5.81039856e-08 4.79989417e-08 4.79989417e-08
      4.29464215e-08 4.29464215e-08 5.05252018e-08 6.56827623e-08
      9.85241471e-08 1.31365525e-07 1.43996829e-07 1.49049356e-07
      1.36418052e-07 1.08629187e-07 9.34716269e-08 7.83140663e-08
      6.56827623e-08 6.82090260e-08 9.34716269e-08 9.59978834e-08
      7.07352825e-08 6.56827623e-08 7.57878027e-08 8.33665865e-08
      1.03576667e-07 9.34716269e-08 8.33665865e-08 8.08403229e-08
      8.58928431e-08 9.34716269e-08 1.11155451e-07 1.31365525e-07
      1.38944316e-07 1.21260484e-07 8.58928431e-08 5.81039856e-08
      4.54726816e-08 4.04201614e-08 5.05252018e-08 6.31565058e-08
      7.83140663e-08 9.85241471e-08 1.01050404e-07 9.59978834e-08
      8.84191067e-08 7.83140663e-08 6.82090260e-08 6.06302422e-08
      5.05252018e-08 4.29464215e-08 3.78939014e-08 3.53676413e-08
      3.53676413e-08 3.03151211e-08 3.03151211e-08 3.28413812e-08
      3.78939014e-08 4.04201614e-08 4.04201614e-08 3.53676413e-08
      3.03151211e-08 2.52626009e-08 1.76838206e-08 5.05252018e-09
      5.05252018e-09 1.01050404e-08 1.26313005e-08 1.01050404e-08
      1.51575605e-08 2.52626009e-08 2.77888628e-08 3.03151211e-08
      3.03151211e-08 2.52626009e-08 2.27363408e-08 2.27363408e-08
      2.52626009e-08 2.52626009e-08 2.77888628e-08 2.52626009e-08
      2.02100807e-08 1.26313005e-08 5.05252018e-09 2.52626009e-09
      5.05252018e-09 2.52626009e-09 5.05252018e-09 2.52626009e-09
      2.52626009e-09 1.26313005e-08 3.28413812e-08 6.06302422e-08
      8.08403229e-08 1.03576667e-07 1.18734228e-07 1.31365525e-07
      1.38944316e-07 1.43996829e-07 1.36418052e-07 1.31365525e-07
      1.16207971e-07 1.03576667e-07 8.58928431e-08 6.31565058e-08
      5.05252018e-08 3.53676413e-08 2.27363408e-08 1.26313005e-08
      1.01050404e-08 1.26313005e-08 1.26313005e-08 1.26313005e-08
      1.26313005e-08 1.01050404e-08 7.57878027e-09 1.01050404e-08
      7.57878027e-09 5.05252018e-09 5.05252018e-09 7.57878027e-09
      1.76838206e-08 4.04201614e-08 5.81039856e-08 6.56827623e-08
      6.31565058e-08 6.56827623e-08 5.30514619e-08 3.53676413e-08
      2.02100807e-08 5.05252018e-09 5.05252018e-09 5.05252018e-09
      7.57878027e-09 7.57878027e-09 2.52626009e-09 2.52626009e-09
      5.05252018e-09 7.57878027e-09 7.57878027e-09 7.57878027e-09
      1.01050404e-08 1.01050404e-08 7.57878027e-09 7.57878027e-09
      5.05252018e-09 5.05252018e-09 1.01050404e-08 1.01050404e-08
      1.26313005e-08 1.51575605e-08 2.02100807e-08 2.27363408e-08
      2.27363408e-08 3.78939014e-08 5.81039856e-08 8.08403229e-08
      1.16207971e-07 1.36418052e-07 1.36418052e-07 1.31365525e-07
      1.16207971e-07 9.34716269e-08 6.06302422e-08 3.78939014e-08
      2.77888628e-08 2.02100807e-08 2.52626009e-08 4.54726816e-08
      6.82090260e-08 8.33665865e-08 9.34716269e-08 9.59978834e-08
      9.59978834e-08 9.34716269e-08 8.84191067e-08 9.09453632e-08
      8.33665865e-08 7.07352825e-08 5.05252018e-08 2.77888628e-08
      1.76838206e-08 1.26313005e-08 7.57878027e-09 7.57878027e-09
      5.05252018e-09 7.57878027e-09 1.51575605e-08 3.28413812e-08
      5.55777255e-08 8.08403229e-08 1.01050404e-07 1.08629187e-07
      1.06102924e-07 9.34716269e-08 8.08403229e-08 9.09453632e-08
      1.18734228e-07 1.41470565e-07 1.61680646e-07 2.04627071e-07
      2.02100807e-07 1.94522030e-07 1.91995767e-07 1.91995767e-07
      1.94522030e-07 1.97048294e-07 2.04627071e-07 2.04627071e-07
      1.97048294e-07 1.94522030e-07 1.97048294e-07 1.91995767e-07
      1.89469517e-07 1.94522030e-07 1.94522030e-07 1.86943254e-07
      1.81890726e-07 1.81890726e-07 1.84416990e-07 1.76838213e-07
      1.74311950e-07 1.76838213e-07 1.79364477e-07 1.97048294e-07
      1.99574558e-07 1.99574558e-07 1.94522030e-07 1.86943254e-07
      1.76838213e-07 1.71785686e-07 1.74311950e-07 1.84416990e-07
      1.84416990e-07 1.79364477e-07 1.79364477e-07 1.76838213e-07
      1.71785686e-07 1.74311950e-07 1.79364477e-07 1.76838213e-07
      1.74311950e-07 1.69259437e-07 1.64206909e-07 1.64206909e-07
      1.64206909e-07 1.71785686e-07 1.71785686e-07 1.66733173e-07
      1.66733173e-07 1.56628133e-07 1.59154396e-07 1.61680646e-07
      1.64206909e-07 1.61680646e-07 1.56628133e-07 1.56628133e-07
      1.49049356e-07 1.49049356e-07 1.41470565e-07 1.36418052e-07
      1.41470565e-07 1.41470565e-07 1.36418052e-07 1.31365525e-07
      1.33891788e-07 1.31365525e-07 1.31365525e-07 1.28839275e-07
      1.23786748e-07 1.23786748e-07 1.28839275e-07 1.23786748e-07
      1.28839275e-07 1.31365525e-07 1.31365525e-07 1.33891788e-07
      1.36418052e-07 1.33891788e-07 1.26313012e-07 1.28839275e-07
      1.31365525e-07 1.31365525e-07 1.23786748e-07 1.18734228e-07
      1.26313012e-07 1.36418052e-07 1.38944316e-07 1.46523092e-07
      1.64206909e-07 1.76838213e-07 1.76838213e-07 1.76838213e-07
      1.74311950e-07 1.74311950e-07 1.76838213e-07 1.74311950e-07
      1.51575605e-07 1.18734228e-07 7.83140663e-08 5.81039856e-08
      5.30514619e-08 6.06302422e-08 6.82090260e-08 6.56827623e-08
      6.56827623e-08 6.31565058e-08 6.56827623e-08 6.56827623e-08
      6.31565058e-08 6.31565058e-08 7.07352825e-08 7.83140663e-08
      7.83140663e-08 7.32615462e-08 6.82090260e-08 6.56827623e-08
      6.06302422e-08 5.81039856e-08 6.06302422e-08 6.06302422e-08
      6.31565058e-08 6.06302422e-08 5.81039856e-08 5.55777255e-08
      6.06302422e-08 6.06302422e-08 5.81039856e-08 5.81039856e-08
      6.06302422e-08 6.31565058e-08 6.56827623e-08 6.56827623e-08
      6.06302422e-08 6.06302422e-08 6.56827623e-08 6.82090260e-08
      6.56827623e-08 6.31565058e-08 6.06302422e-08 6.06302422e-08
      6.31565058e-08 6.56827623e-08 6.31565058e-08 5.81039856e-08
      5.55777255e-08 6.82090260e-08 7.57878027e-08 1.03576667e-07
      1.51575605e-07 1.89469517e-07 2.19784638e-07 2.17258375e-07
      2.04627071e-07 1.97048294e-07 1.86943254e-07 1.94522030e-07
      1.91995767e-07 1.81890726e-07 1.69259437e-07 1.38944316e-07
      7.07352825e-08 2.77888628e-08 2.02100807e-08 2.77888628e-08
      3.03151211e-08 3.28413812e-08 4.79989417e-08 5.55777255e-08
      8.84191067e-08 1.18734228e-07 1.13681708e-07 1.08629187e-07
      1.11155451e-07 9.85241471e-08 5.05252018e-08 1.51575605e-08
      5.05252018e-09 5.05252018e-09 5.05252018e-09 1.01050404e-08
      1.01050404e-08 1.26313005e-08 1.26313005e-08 1.51575605e-08
      1.51575605e-08 2.52626009e-08 3.28413812e-08 4.29464215e-08
      5.55777255e-08 5.81039856e-08 5.81039856e-08 5.55777255e-08
      5.55777255e-08 6.06302422e-08 6.56827623e-08 8.33665865e-08
      1.08629187e-07 1.28839275e-07 1.28839275e-07 9.59978834e-08
      6.06302422e-08 4.79989417e-08 5.55777255e-08 5.05252018e-08
      4.54726816e-08 4.79989417e-08 7.57878027e-08 9.59978834e-08
      1.21260484e-07 1.41470565e-07 1.36418052e-07 1.23786748e-07
      1.01050404e-07 7.57878027e-08 6.56827623e-08 6.06302422e-08
      7.57878027e-08 9.85241471e-08 1.01050404e-07 8.08403229e-08
      6.31565058e-08 7.83140663e-08 9.59978834e-08 9.85241471e-08
      9.34716269e-08 9.09453632e-08 9.59978834e-08 9.85241471e-08
      9.59978834e-08 1.06102924e-07 1.18734228e-07 1.56628133e-07
      1.71785686e-07 1.49049356e-07 1.16207971e-07 8.33665865e-08
      6.82090260e-08 6.31565058e-08 6.56827623e-08 7.83140663e-08
      9.09453632e-08 1.08629187e-07 1.08629187e-07 1.01050404e-07
      9.09453632e-08 8.08403229e-08 6.82090260e-08 5.55777255e-08
      5.05252018e-08 4.54726816e-08 4.54726816e-08 4.29464215e-08
      4.04201614e-08 3.78939014e-08 3.28413812e-08 3.53676413e-08
      3.78939014e-08 4.04201614e-08 4.29464215e-08 4.04201614e-08
      3.28413812e-08 2.77888628e-08 2.02100807e-08 1.26313005e-08
      1.01050404e-08 1.26313005e-08 1.76838206e-08 2.02100807e-08
      2.52626009e-08 3.78939014e-08 3.78939014e-08 3.78939014e-08
      4.04201614e-08 3.78939014e-08 3.53676413e-08 3.03151211e-08
      2.52626009e-08 2.52626009e-08 2.52626009e-08 2.77888628e-08
      2.77888628e-08 1.51575605e-08 7.57878027e-09 7.57878027e-09
      7.57878027e-09 5.05252018e-09 7.57878027e-09 5.05252018e-09
      2.52626009e-09 2.52626009e-09 1.01050404e-08 2.27363408e-08
      3.28413812e-08 5.05252018e-08 6.56827623e-08 8.08403229e-08
      9.09453632e-08 9.09453632e-08 8.33665865e-08 6.82090260e-08
      5.05252018e-08 4.04201614e-08 3.53676413e-08 2.52626009e-08
      2.27363408e-08 1.51575605e-08 1.51575605e-08 1.26313005e-08
      1.01050404e-08 1.01050404e-08 1.01050404e-08 1.01050404e-08
      7.57878027e-09 5.05252018e-09 1.01050404e-08 7.57878027e-09
      7.57878027e-09 7.57878027e-09 1.01050404e-08 7.57878027e-09
      7.57878027e-09 1.26313005e-08 1.76838206e-08 2.27363408e-08
      2.27363408e-08 2.27363408e-08 1.26313005e-08 5.05252018e-09
      7.57878027e-09 5.05252018e-09 5.05252018e-09 5.05252018e-09
      5.05252018e-09 7.57878027e-09 2.52626009e-09 2.52626009e-09
      7.57878027e-09 7.57878027e-09 5.05252018e-09 7.57878027e-09
      1.01050404e-08 7.57878027e-09 5.05252018e-09 1.01050404e-08
      1.01050404e-08 1.01050404e-08 1.01050404e-08 1.26313005e-08
      1.51575605e-08 1.26313005e-08 2.02100807e-08 2.52626009e-08
      2.52626009e-08 2.77888628e-08 3.78939014e-08 5.55777255e-08
      8.58928431e-08 1.23786748e-07 1.31365525e-07 1.38944316e-07
      1.38944316e-07 1.26313012e-07 1.03576667e-07 7.07352825e-08
      4.54726816e-08 2.77888628e-08 2.02100807e-08 2.02100807e-08
      3.78939014e-08 5.55777255e-08 7.07352825e-08 7.83140663e-08
      8.33665865e-08 8.33665865e-08 9.85241471e-08 1.13681708e-07
      1.16207971e-07 1.13681708e-07 9.59978834e-08 6.82090260e-08
      4.29464215e-08 2.77888628e-08 1.51575605e-08 1.01050404e-08
      7.57878027e-09 2.52626009e-09 2.52626009e-09 2.52626009e-09
      1.01050404e-08 3.53676413e-08 6.31565058e-08 9.34716269e-08
      1.16207971e-07 1.13681708e-07 9.34716269e-08 7.57878027e-08
      7.83140663e-08 1.03576667e-07 1.51575605e-07 2.07153334e-07
      2.02100807e-07 1.94522030e-07 1.89469517e-07 1.89469517e-07
      1.94522030e-07 2.02100807e-07 2.12205848e-07 2.14732111e-07
      2.07153334e-07 1.97048294e-07 1.94522030e-07 1.91995767e-07
      1.94522030e-07 1.97048294e-07 1.97048294e-07 1.91995767e-07
      1.91995767e-07 1.86943254e-07 1.84416990e-07 1.81890726e-07
      1.76838213e-07 1.79364477e-07 1.76838213e-07 1.89469517e-07
      1.91995767e-07 1.97048294e-07 1.97048294e-07 1.86943254e-07
      1.81890726e-07 1.81890726e-07 1.79364477e-07 1.89469517e-07
      1.89469517e-07 1.76838213e-07 1.76838213e-07 1.71785686e-07
      1.66733173e-07 1.76838213e-07 1.81890726e-07 1.79364477e-07
      1.74311950e-07 1.66733173e-07 1.59154396e-07 1.64206909e-07
      1.59154396e-07 1.64206909e-07 1.66733173e-07 1.69259437e-07
      1.74311950e-07 1.61680646e-07 1.69259437e-07 1.74311950e-07
      1.74311950e-07 1.69259437e-07 1.64206909e-07 1.66733173e-07
      1.54101869e-07 1.51575605e-07 1.46523092e-07 1.43996829e-07
      1.43996829e-07 1.41470565e-07 1.41470565e-07 1.33891788e-07
      1.33891788e-07 1.31365525e-07 1.28839275e-07 1.23786748e-07
      1.23786748e-07 1.26313012e-07 1.28839275e-07 1.23786748e-07
      1.31365525e-07 1.33891788e-07 1.31365525e-07 1.36418052e-07
      1.33891788e-07 1.33891788e-07 1.26313012e-07 1.28839275e-07
      1.33891788e-07 1.33891788e-07 1.26313012e-07 1.21260484e-07
      1.23786748e-07 1.23786748e-07 1.18734228e-07 1.23786748e-07
      1.41470565e-07 1.59154396e-07 1.69259437e-07 1.76838213e-07
      1.79364477e-07 1.76838213e-07 1.71785686e-07 1.49049356e-07
      1.08629187e-07 7.57878027e-08 5.05252018e-08 5.81039856e-08
      5.81039856e-08 6.31565058e-08 6.56827623e-08 6.31565058e-08
      6.31565058e-08 6.06302422e-08 6.31565058e-08 6.56827623e-08
      6.56827623e-08 6.82090260e-08 7.83140663e-08 8.08403229e-08
      7.32615462e-08 6.82090260e-08 6.56827623e-08 6.56827623e-08
      6.06302422e-08 5.81039856e-08 5.81039856e-08 6.06302422e-08
      6.31565058e-08 6.31565058e-08 6.06302422e-08 5.81039856e-08
      5.81039856e-08 5.81039856e-08 6.06302422e-08 6.06302422e-08
      6.31565058e-08 6.31565058e-08 6.31565058e-08 6.31565058e-08
      6.06302422e-08 6.31565058e-08 6.82090260e-08 7.07352825e-08
      6.82090260e-08 6.31565058e-08 6.06302422e-08 6.31565058e-08
      6.56827623e-08 6.31565058e-08 6.31565058e-08 6.06302422e-08
      6.31565058e-08 7.07352825e-08 9.34716269e-08 1.38944316e-07
      1.84416990e-07 2.09679598e-07 2.27363415e-07 2.12205848e-07
      2.02100807e-07 2.02100807e-07 1.91995767e-07 1.86943254e-07
      1.74311950e-07 1.51575605e-07 1.21260484e-07 8.58928431e-08
      4.29464215e-08 2.27363408e-08 2.52626009e-08 3.53676413e-08
      3.53676413e-08 4.04201614e-08 6.56827623e-08 8.58928431e-08
      1.11155451e-07 1.18734228e-07 1.03576667e-07 1.11155451e-07
      1.01050404e-07 5.30514619e-08 1.76838206e-08 7.57878027e-09
      7.57878027e-09 7.57878027e-09 1.01050404e-08 7.57878027e-09
      1.01050404e-08 1.51575605e-08 2.02100807e-08 2.27363408e-08
      2.77888628e-08 3.28413812e-08 4.04201614e-08 4.54726816e-08
      5.55777255e-08 5.81039856e-08 5.55777255e-08 5.55777255e-08
      6.06302422e-08 7.32615462e-08 1.03576667e-07 1.26313012e-07
      1.28839275e-07 1.11155451e-07 7.83140663e-08 5.05252018e-08
      5.55777255e-08 5.81039856e-08 5.05252018e-08 4.04201614e-08
      4.79989417e-08 6.56827623e-08 9.85241471e-08 1.18734228e-07
      1.23786748e-07 1.28839275e-07 1.08629187e-07 9.34716269e-08
      7.07352825e-08 5.05252018e-08 7.07352825e-08 9.09453632e-08
      1.01050404e-07 1.01050404e-07 7.83140663e-08 7.07352825e-08
      9.09453632e-08 1.11155451e-07 9.85241471e-08 9.09453632e-08
      9.85241471e-08 1.01050404e-07 1.11155451e-07 9.85241471e-08
      8.58928431e-08 1.03576667e-07 1.43996829e-07 1.81890726e-07
      1.81890726e-07 1.41470565e-07 1.11155451e-07 9.34716269e-08
      7.57878027e-08 6.31565058e-08 6.31565058e-08 7.57878027e-08
      9.09453632e-08 1.06102924e-07 1.01050404e-07 8.33665865e-08
      7.32615462e-08 6.82090260e-08 6.06302422e-08 5.05252018e-08
      4.54726816e-08 3.78939014e-08 4.29464215e-08 4.04201614e-08
      3.78939014e-08 3.78939014e-08 3.53676413e-08 3.53676413e-08
      3.78939014e-08 4.04201614e-08 4.29464215e-08 4.29464215e-08
      3.53676413e-08 3.03151211e-08 2.52626009e-08 2.02100807e-08
      1.51575605e-08 1.51575605e-08 2.27363408e-08 2.77888628e-08
      3.53676413e-08 4.04201614e-08 4.04201614e-08 3.78939014e-08
      4.54726816e-08 4.54726816e-08 4.29464215e-08 3.78939014e-08
      3.28413812e-08 2.77888628e-08 2.52626009e-08 2.27363408e-08
      2.77888628e-08 1.76838206e-08 1.26313005e-08 1.51575605e-08
      1.01050404e-08 7.57878027e-09 7.57878027e-09 5.05252018e-09
      7.57878027e-09 7.57878027e-09 1.01050404e-08 1.01050404e-08
      1.01050404e-08 1.51575605e-08 2.27363408e-08 3.03151211e-08
      4.04201614e-08 3.78939014e-08 3.03151211e-08 3.53676413e-08
      2.02100807e-08 1.51575605e-08 1.26313005e-08 1.01050404e-08
      1.01050404e-08 1.26313005e-08 1.51575605e-08 1.26313005e-08
      7.57878027e-09 5.05252018e-09 7.57878027e-09 1.01050404e-08
      5.05252018e-09 2.52626009e-09 7.57878027e-09 7.57878027e-09
      5.05252018e-09 1.01050404e-08 7.57878027e-09 7.57878027e-09
      7.57878027e-09 5.05252018e-09 2.52626009e-09 2.52626009e-09
      5.05252018e-09 5.05252018e-09 2.52626009e-09 0. 2.52626009e-09
      5.05252018e-09 7.57878027e-09 5.05252018e-09 2.52626009e-09
      5.05252018e-09 2.52626009e-09 5.05252018e-09 5.05252018e-09
      2.52626009e-09 2.52626009e-09 5.05252018e-09 1.01050404e-08
      7.57878027e-09 7.57878027e-09 7.57878027e-09 7.57878027e-09
      7.57878027e-09 1.01050404e-08 1.01050404e-08 1.26313005e-08
      1.76838206e-08 2.27363408e-08 2.52626009e-08 2.77888628e-08
      2.77888628e-08 3.03151211e-08 3.78939014e-08 5.30514619e-08
      9.09453632e-08 1.18734228e-07 1.54101869e-07 1.66733173e-07
      1.46523092e-07 1.31365525e-07 1.08629187e-07 7.07352825e-08
      4.79989417e-08 3.03151211e-08 1.51575605e-08 1.76838206e-08
      2.52626009e-08 3.28413812e-08 3.78939014e-08 4.54726816e-08
      5.30514619e-08 7.07352825e-08 1.03576667e-07 1.28839275e-07
      1.33891788e-07 1.23786748e-07 9.85241471e-08 7.57878027e-08
      5.30514619e-08 2.77888628e-08 1.51575605e-08 1.01050404e-08
      5.05252018e-09 5.05252018e-09 5.05252018e-09 2.52626009e-09
      1.01050404e-08 2.27363408e-08 5.81039856e-08 9.85241471e-08
      1.16207971e-07 1.11155451e-07 9.59978834e-08 7.07352825e-08
      8.08403229e-08 1.31365525e-07 1.99574558e-07 1.94522030e-07
      1.91995767e-07 1.91995767e-07 1.89469517e-07 1.91995767e-07
      1.94522030e-07 2.04627071e-07 2.09679598e-07 2.04627071e-07
      1.99574558e-07 1.94522030e-07 1.91995767e-07 1.97048294e-07
      2.02100807e-07 1.99574558e-07 1.97048294e-07 1.97048294e-07
      1.94522030e-07 1.86943254e-07 1.86943254e-07 1.84416990e-07
      1.81890726e-07 1.76838213e-07 1.81890726e-07 1.79364477e-07
      1.84416990e-07 1.84416990e-07 1.86943254e-07 1.81890726e-07
      1.81890726e-07 1.79364477e-07 1.86943254e-07 1.81890726e-07
      1.74311950e-07 1.74311950e-07 1.66733173e-07 1.66733173e-07
      1.76838213e-07 1.81890726e-07 1.81890726e-07 1.81890726e-07
      1.79364477e-07 1.79364477e-07 1.69259437e-07 1.59154396e-07
      1.61680646e-07 1.64206909e-07 1.69259437e-07 1.74311950e-07
      1.79364477e-07 1.81890726e-07 1.84416990e-07 1.79364477e-07
      1.76838213e-07 1.74311950e-07 1.76838213e-07 1.59154396e-07
      1.54101869e-07 1.51575605e-07 1.49049356e-07 1.46523092e-07
      1.46523092e-07 1.49049356e-07 1.46523092e-07 1.38944316e-07
      1.33891788e-07 1.28839275e-07 1.26313012e-07 1.31365525e-07
      1.26313012e-07 1.21260484e-07 1.21260484e-07 1.33891788e-07
      1.41470565e-07 1.33891788e-07 1.38944316e-07 1.31365525e-07
      1.33891788e-07 1.26313012e-07 1.31365525e-07 1.31365525e-07
      1.33891788e-07 1.33891788e-07 1.31365525e-07 1.31365525e-07
      1.23786748e-07 1.18734228e-07 1.16207971e-07 1.18734228e-07
      1.28839275e-07 1.43996829e-07 1.61680646e-07 1.71785686e-07
      1.71785686e-07 1.43996829e-07 1.01050404e-07 6.31565058e-08
      5.55777255e-08 5.81039856e-08 6.56827623e-08 6.31565058e-08
      6.31565058e-08 6.06302422e-08 6.31565058e-08 6.82090260e-08
      6.06302422e-08 6.31565058e-08 6.56827623e-08 6.82090260e-08
      7.32615462e-08 7.83140663e-08 7.57878027e-08 6.82090260e-08
      6.31565058e-08 6.06302422e-08 6.06302422e-08 6.06302422e-08
      5.81039856e-08 5.81039856e-08 6.06302422e-08 6.06302422e-08
      6.06302422e-08 6.06302422e-08 5.81039856e-08 5.81039856e-08
      5.81039856e-08 6.06302422e-08 6.31565058e-08 6.31565058e-08
      6.06302422e-08 5.81039856e-08 6.06302422e-08 5.81039856e-08
      5.81039856e-08 6.31565058e-08 6.31565058e-08 6.31565058e-08
      6.31565058e-08 6.31565058e-08 6.56827623e-08 6.31565058e-08
      6.06302422e-08 6.06302422e-08 6.06302422e-08 6.56827623e-08
      7.57878027e-08 1.18734228e-07 1.74311950e-07 2.04627071e-07
      2.09679598e-07 2.12205848e-07 1.91995767e-07 1.86943254e-07
      1.79364477e-07 1.61680646e-07 1.43996829e-07 1.16207971e-07
      7.32615462e-08 4.29464215e-08 2.52626009e-08 2.27363408e-08
      2.77888628e-08 3.03151211e-08 3.53676413e-08 4.29464215e-08
      5.55777255e-08 8.84191067e-08 1.13681708e-07 1.08629187e-07
      1.08629187e-07 1.16207971e-07 1.11155451e-07 6.82090260e-08
      1.51575605e-08 5.05252018e-09 1.01050404e-08 7.57878027e-09 0.
      1.26313005e-08 1.26313005e-08 1.26313005e-08 2.02100807e-08
      2.77888628e-08 3.28413812e-08 3.53676413e-08 4.04201614e-08
      3.78939014e-08 3.78939014e-08 4.79989417e-08 5.30514619e-08
      5.81039856e-08 7.32615462e-08 9.09453632e-08 1.08629187e-07
      1.28839275e-07 1.18734228e-07 8.58928431e-08 5.81039856e-08
      3.78939014e-08 6.06302422e-08 7.07352825e-08 6.31565058e-08
      4.54726816e-08 5.30514619e-08 7.32615462e-08 1.03576667e-07
      1.21260484e-07 1.18734228e-07 1.16207971e-07 1.11155451e-07
      7.83140663e-08 5.55777255e-08 5.05252018e-08 5.81039856e-08
      8.84191067e-08 1.01050404e-07 8.84191067e-08 7.07352825e-08
      8.08403229e-08 9.34716269e-08 9.34716269e-08 9.09453632e-08
      8.84191067e-08 1.03576667e-07 1.18734228e-07 1.03576667e-07
      8.84191067e-08 7.07352825e-08 8.08403229e-08 1.26313012e-07
      1.89469517e-07 2.04627071e-07 1.64206909e-07 1.01050404e-07
      7.57878027e-08 7.32615462e-08 6.31565058e-08 5.05252018e-08
      5.55777255e-08 7.07352825e-08 8.58928431e-08 9.85241471e-08
      9.59978834e-08 8.58928431e-08 7.07352825e-08 6.31565058e-08
      6.06302422e-08 5.05252018e-08 4.54726816e-08 4.54726816e-08
      4.54726816e-08 4.04201614e-08 3.78939014e-08 4.54726816e-08
      4.29464215e-08 3.78939014e-08 3.78939014e-08 3.78939014e-08
      4.04201614e-08 4.04201614e-08 3.78939014e-08 3.28413812e-08
      2.77888628e-08 2.27363408e-08 1.51575605e-08 1.76838206e-08
      2.52626009e-08 3.53676413e-08 4.04201614e-08 4.29464215e-08
      4.54726816e-08 4.04201614e-08 3.78939014e-08 3.78939014e-08
      4.04201614e-08 3.78939014e-08 3.78939014e-08 3.53676413e-08
      3.03151211e-08 2.77888628e-08 2.52626009e-08 2.02100807e-08
      1.76838206e-08 1.51575605e-08 1.26313005e-08 7.57878027e-09
      7.57878027e-09 7.57878027e-09 1.01050404e-08 7.57878027e-09
      1.01050404e-08 1.01050404e-08 1.01050404e-08 7.57878027e-09
      7.57878027e-09 7.57878027e-09 1.01050404e-08 1.01050404e-08
      7.57878027e-09 1.26313005e-08 1.01050404e-08 7.57878027e-09
      1.01050404e-08 1.26313005e-08 1.26313005e-08 7.57878027e-09
      7.57878027e-09 1.01050404e-08 1.01050404e-08 7.57878027e-09
      7.57878027e-09 7.57878027e-09 7.57878027e-09 5.05252018e-09
      5.05252018e-09 5.05252018e-09 2.52626009e-09 5.05252018e-09
      5.05252018e-09 5.05252018e-09 2.52626009e-09 2.52626009e-09
      2.52626009e-09 5.05252018e-09 5.05252018e-09 7.57878027e-09
      1.01050404e-08 7.57878027e-09 5.05252018e-09 5.05252018e-09
      1.01050404e-08 5.05252018e-09 2.52626009e-09 5.05252018e-09
      5.05252018e-09 5.05252018e-09 5.05252018e-09 2.52626009e-09
      5.05252018e-09 5.05252018e-09 7.57878027e-09 1.01050404e-08
      1.01050404e-08 7.57878027e-09 1.01050404e-08 1.01050404e-08
      1.26313005e-08 1.26313005e-08 1.51575605e-08 2.27363408e-08
      2.27363408e-08 2.77888628e-08 3.03151211e-08 3.28413812e-08
      3.28413812e-08 3.28413812e-08 3.78939014e-08 6.82090260e-08
      1.18734228e-07 1.76838213e-07 1.89469517e-07 1.61680646e-07
      1.54101869e-07 1.46523092e-07 1.08629187e-07 7.57878027e-08
      4.54726816e-08 2.02100807e-08 1.51575605e-08 1.01050404e-08
      7.57878027e-09 7.57878027e-09 1.51575605e-08 2.52626009e-08
      3.28413812e-08 7.57878027e-08 1.21260484e-07 1.46523092e-07
      1.41470565e-07 1.26313012e-07 1.11155451e-07 8.33665865e-08
      5.05252018e-08 3.03151211e-08 1.76838206e-08 1.01050404e-08
      5.05252018e-09 5.05252018e-09 1.01050404e-08 7.57878027e-09
      2.52626009e-09 2.52626009e-08 6.06302422e-08 9.59978834e-08
      1.16207971e-07 1.18734228e-07 9.09453632e-08 8.33665865e-08
      1.13681708e-07 1.91995767e-07 1.89469517e-07 1.94522030e-07
      1.94522030e-07 1.94522030e-07 1.97048294e-07 1.91995767e-07
      1.94522030e-07 1.97048294e-07 1.97048294e-07 1.97048294e-07
      1.91995767e-07 1.89469517e-07 1.97048294e-07 2.02100807e-07
      1.99574558e-07 1.99574558e-07 1.97048294e-07 1.94522030e-07
      1.91995767e-07 1.94522030e-07 1.86943254e-07 1.89469517e-07
      1.86943254e-07 1.79364477e-07 1.79364477e-07 1.74311950e-07
      1.76838213e-07 1.86943254e-07 1.86943254e-07 1.74311950e-07
      1.76838213e-07 1.79364477e-07 1.74311950e-07 1.69259437e-07
      1.71785686e-07 1.66733173e-07 1.61680646e-07 1.64206909e-07
      1.71785686e-07 1.76838213e-07 1.74311950e-07 1.74311950e-07
      1.76838213e-07 1.71785686e-07 1.59154396e-07 1.59154396e-07
      1.61680646e-07 1.59154396e-07 1.64206909e-07 1.79364477e-07
      1.84416990e-07 1.86943254e-07 1.84416990e-07 1.79364477e-07
      1.81890726e-07 1.79364477e-07 1.64206909e-07 1.59154396e-07
      1.51575605e-07 1.46523092e-07 1.46523092e-07 1.49049356e-07
      1.56628133e-07 1.59154396e-07 1.49049356e-07 1.38944316e-07
      1.33891788e-07 1.28839275e-07 1.33891788e-07 1.31365525e-07
      1.26313012e-07 1.23786748e-07 1.33891788e-07 1.36418052e-07
      1.33891788e-07 1.43996829e-07 1.31365525e-07 1.36418052e-07
      1.28839275e-07 1.31365525e-07 1.36418052e-07 1.36418052e-07
      1.36418052e-07 1.36418052e-07 1.36418052e-07 1.28839275e-07
      1.18734228e-07 1.13681708e-07 1.11155451e-07 1.11155451e-07
      1.16207971e-07 1.33891788e-07 1.41470565e-07 1.31365525e-07
      9.59978834e-08 6.56827623e-08 5.30514619e-08 5.81039856e-08
      6.56827623e-08 6.06302422e-08 6.31565058e-08 6.31565058e-08
      6.31565058e-08 6.56827623e-08 6.82090260e-08 6.56827623e-08
      6.56827623e-08 6.82090260e-08 7.32615462e-08 7.57878027e-08
      7.57878027e-08 7.07352825e-08 6.56827623e-08 6.31565058e-08
      6.06302422e-08 5.81039856e-08 5.81039856e-08 5.81039856e-08
      6.06302422e-08 6.31565058e-08 6.06302422e-08 6.06302422e-08
      6.06302422e-08 5.81039856e-08 6.06302422e-08 6.06302422e-08
      6.06302422e-08 6.06302422e-08 6.06302422e-08 6.06302422e-08
      6.56827623e-08 6.82090260e-08 6.56827623e-08 6.56827623e-08
      7.07352825e-08 6.56827623e-08 6.31565058e-08 6.06302422e-08
      6.31565058e-08 6.56827623e-08 6.06302422e-08 5.81039856e-08
      6.06302422e-08 7.07352825e-08 8.84191067e-08 1.16207971e-07
      1.71785686e-07 2.12205848e-07 2.12205848e-07 2.04627071e-07
      1.91995767e-07 1.74311950e-07 1.59154396e-07 1.33891788e-07
      1.08629187e-07 8.58928431e-08 5.30514619e-08 2.52626009e-08
      2.52626009e-08 3.03151211e-08 3.28413812e-08 4.04201614e-08
      4.04201614e-08 5.05252018e-08 6.31565058e-08 7.83140663e-08
      1.01050404e-07 1.08629187e-07 1.03576667e-07 1.16207971e-07
      1.21260484e-07 7.32615462e-08 2.52626009e-08 1.51575605e-08
      7.57878027e-09 1.01050404e-08 1.01050404e-08 5.05252018e-09
      1.51575605e-08 2.27363408e-08 2.52626009e-08 3.53676413e-08
      3.78939014e-08 4.04201614e-08 4.29464215e-08 4.79989417e-08
      5.05252018e-08 5.81039856e-08 7.57878027e-08 9.09453632e-08
      9.85241471e-08 1.08629187e-07 1.18734228e-07 1.06102924e-07
      9.09453632e-08 6.06302422e-08 4.04201614e-08 4.29464215e-08
      6.06302422e-08 7.57878027e-08 6.06302422e-08 4.79989417e-08
      5.05252018e-08 7.57878027e-08 1.06102924e-07 1.31365525e-07
      1.23786748e-07 9.34716269e-08 7.83140663e-08 7.32615462e-08
      5.05252018e-08 4.79989417e-08 7.32615462e-08 9.85241471e-08
      9.59978834e-08 8.84191067e-08 8.58928431e-08 9.09453632e-08
      1.08629187e-07 1.03576667e-07 8.08403229e-08 8.33665865e-08
      1.06102924e-07 1.33891788e-07 1.13681708e-07 8.33665865e-08
      7.32615462e-08 9.09453632e-08 1.23786748e-07 1.66733173e-07
      1.86943254e-07 1.66733173e-07 1.11155451e-07 6.06302422e-08
      5.30514619e-08 5.05252018e-08 4.79989417e-08 5.05252018e-08
      6.06302422e-08 7.57878027e-08 8.84191067e-08 9.59978834e-08
      9.34716269e-08 8.58928431e-08 6.31565058e-08 6.06302422e-08
      6.82090260e-08 7.07352825e-08 7.32615462e-08 7.57878027e-08
      7.07352825e-08 6.06302422e-08 5.30514619e-08 5.55777255e-08
      4.79989417e-08 4.04201614e-08 3.78939014e-08 3.53676413e-08
      3.78939014e-08 4.04201614e-08 3.78939014e-08 3.53676413e-08
      3.03151211e-08 2.52626009e-08 2.02100807e-08 2.27363408e-08
      3.28413812e-08 4.29464215e-08 4.54726816e-08 4.29464215e-08
      4.79989417e-08 4.29464215e-08 3.53676413e-08 3.78939014e-08
      3.78939014e-08 3.78939014e-08 3.78939014e-08 3.78939014e-08
      3.53676413e-08 3.03151211e-08 2.52626009e-08 2.52626009e-08
      2.02100807e-08 1.01050404e-08 1.01050404e-08 1.01050404e-08
      1.26313005e-08 1.51575605e-08 1.51575605e-08 1.01050404e-08
      1.01050404e-08 1.26313005e-08 1.01050404e-08 1.01050404e-08
      7.57878027e-09 7.57878027e-09 5.05252018e-09 5.05252018e-09
      7.57878027e-09 1.26313005e-08 1.26313005e-08 1.01050404e-08
      7.57878027e-09 5.05252018e-09 5.05252018e-09 7.57878027e-09
      1.01050404e-08 1.01050404e-08 1.01050404e-08 7.57878027e-09
      5.05252018e-09 7.57878027e-09 1.01050404e-08 7.57878027e-09
      5.05252018e-09 7.57878027e-09 5.05252018e-09 2.52626009e-09
      5.05252018e-09 5.05252018e-09 5.05252018e-09 5.05252018e-09
      7.57878027e-09 7.57878027e-09 2.52626009e-09 5.05252018e-09
      5.05252018e-09 2.52626009e-09 2.52626009e-09 2.52626009e-09
      7.57878027e-09 2.52626009e-09 2.52626009e-09 5.05252018e-09
      5.05252018e-09 5.05252018e-09 5.05252018e-09 7.57878027e-09
      1.01050404e-08 1.01050404e-08 7.57878027e-09 1.01050404e-08
      1.26313005e-08 1.01050404e-08 1.26313005e-08 1.51575605e-08
      1.76838206e-08 2.02100807e-08 2.02100807e-08 2.27363408e-08
      2.27363408e-08 2.77888628e-08 3.53676413e-08 4.04201614e-08
      3.78939014e-08 3.78939014e-08 4.29464215e-08 6.82090260e-08
      1.36418052e-07 1.94522030e-07 1.81890726e-07 1.64206909e-07
      1.66733173e-07 1.59154396e-07 1.28839275e-07 1.01050404e-07
      7.32615462e-08 4.54726816e-08 3.28413812e-08 2.02100807e-08
      1.26313005e-08 7.57878027e-09 7.57878027e-09 1.01050404e-08
      1.51575605e-08 4.79989417e-08 9.34716269e-08 1.31365525e-07
      1.38944316e-07 1.43996829e-07 1.31365525e-07 1.11155451e-07
      8.33665865e-08 6.31565058e-08 4.04201614e-08 2.77888628e-08
      1.76838206e-08 7.57878027e-09 1.01050404e-08 7.57878027e-09
      2.52626009e-09 7.57878027e-09 2.27363408e-08 5.55777255e-08
      9.09453632e-08 1.13681708e-07 1.11155451e-07 1.01050404e-07
      1.08629187e-07 1.97048294e-07 1.99574558e-07 2.02100807e-07
      2.02100807e-07 1.97048294e-07 1.97048294e-07 1.94522030e-07
      1.99574558e-07 1.97048294e-07 1.97048294e-07 1.97048294e-07
      1.94522030e-07 1.94522030e-07 2.02100807e-07 2.09679598e-07
      2.04627071e-07 2.02100807e-07 1.99574558e-07 1.94522030e-07
      1.97048294e-07 1.99574558e-07 1.94522030e-07 1.99574558e-07
      1.97048294e-07 1.89469517e-07 1.81890726e-07 1.86943254e-07
      1.86943254e-07 1.86943254e-07 1.81890726e-07 1.84416990e-07
      1.84416990e-07 1.79364477e-07 1.76838213e-07 1.74311950e-07
      1.74311950e-07 1.66733173e-07 1.66733173e-07 1.71785686e-07
      1.81890726e-07 1.89469517e-07 1.81890726e-07 1.71785686e-07
      1.71785686e-07 1.69259437e-07 1.59154396e-07 1.59154396e-07
      1.56628133e-07 1.56628133e-07 1.61680646e-07 1.69259437e-07
      1.79364477e-07 1.86943254e-07 1.86943254e-07 1.84416990e-07
      1.81890726e-07 1.76838213e-07 1.69259437e-07 1.64206909e-07
      1.54101869e-07 1.46523092e-07 1.46523092e-07 1.49049356e-07
      1.56628133e-07 1.59154396e-07 1.51575605e-07 1.41470565e-07
      1.33891788e-07 1.31365525e-07 1.33891788e-07 1.36418052e-07
      1.36418052e-07 1.31365525e-07 1.33891788e-07 1.31365525e-07
      1.28839275e-07 1.38944316e-07 1.31365525e-07 1.36418052e-07
      1.36418052e-07 1.36418052e-07 1.38944316e-07 1.36418052e-07
      1.33891788e-07 1.33891788e-07 1.33891788e-07 1.28839275e-07
      1.18734228e-07 1.16207971e-07 1.21260484e-07 1.13681708e-07
      1.11155451e-07 1.16207971e-07 1.16207971e-07 9.59978834e-08
      7.07352825e-08 5.81039856e-08 5.81039856e-08 6.56827623e-08
      6.06302422e-08 5.81039856e-08 6.31565058e-08 6.56827623e-08
      6.82090260e-08 6.82090260e-08 6.56827623e-08 6.56827623e-08
      6.56827623e-08 6.82090260e-08 7.32615462e-08 7.32615462e-08
      6.82090260e-08 6.82090260e-08 6.82090260e-08 6.56827623e-08
      6.06302422e-08 6.06302422e-08 6.06302422e-08 6.06302422e-08
      6.06302422e-08 6.31565058e-08 6.31565058e-08 6.06302422e-08
      6.06302422e-08 5.81039856e-08 6.31565058e-08 6.06302422e-08
      6.06302422e-08 5.81039856e-08 5.81039856e-08 6.31565058e-08
      6.31565058e-08 6.56827623e-08 6.31565058e-08 6.31565058e-08
      6.56827623e-08 6.31565058e-08 6.06302422e-08 6.31565058e-08
      6.31565058e-08 6.31565058e-08 6.06302422e-08 5.81039856e-08
      5.81039856e-08 6.82090260e-08 9.59978834e-08 1.49049356e-07
      2.02100807e-07 2.12205848e-07 1.97048294e-07 1.79364477e-07
      1.61680646e-07 1.38944316e-07 1.13681708e-07 7.32615462e-08
      4.79989417e-08 2.52626009e-08 1.76838206e-08 2.52626009e-08
      3.53676413e-08 3.78939014e-08 4.54726816e-08 5.05252018e-08
      5.55777255e-08 6.82090260e-08 8.58928431e-08 9.59978834e-08
      1.03576667e-07 1.01050404e-07 1.11155451e-07 1.16207971e-07
      8.58928431e-08 3.53676413e-08 1.01050404e-08 1.01050404e-08
      1.26313005e-08 1.01050404e-08 1.76838206e-08 1.76838206e-08
      2.27363408e-08 3.28413812e-08 4.04201614e-08 4.54726816e-08
      4.79989417e-08 4.54726816e-08 4.79989417e-08 5.05252018e-08
      6.06302422e-08 7.83140663e-08 9.85241471e-08 1.06102924e-07
      1.01050404e-07 9.34716269e-08 8.84191067e-08 5.81039856e-08
      4.04201614e-08 3.28413812e-08 4.29464215e-08 6.31565058e-08
      7.83140663e-08 7.57878027e-08 5.05252018e-08 5.05252018e-08
      7.57878027e-08 1.06102924e-07 1.28839275e-07 1.21260484e-07
      9.85241471e-08 6.06302422e-08 3.78939014e-08 4.04201614e-08
      5.05252018e-08 6.56827623e-08 9.59978834e-08 1.01050404e-07
      8.08403229e-08 8.33665865e-08 1.03576667e-07 1.03576667e-07
      9.09453632e-08 7.83140663e-08 7.83140663e-08 1.08629187e-07
      1.13681708e-07 1.08629187e-07 7.57878027e-08 6.06302422e-08
      7.57878027e-08 1.21260484e-07 1.51575605e-07 1.64206909e-07
      1.46523092e-07 1.16207971e-07 7.57878027e-08 5.55777255e-08
      6.06302422e-08 5.30514619e-08 4.29464215e-08 4.54726816e-08
      6.31565058e-08 8.33665865e-08 9.34716269e-08 9.85241471e-08
      9.85241471e-08 8.58928431e-08 7.32615462e-08 8.33665865e-08
      1.06102924e-07 1.21260484e-07 1.31365525e-07 1.28839275e-07
      1.26313012e-07 1.08629187e-07 9.59978834e-08 9.09453632e-08
      7.32615462e-08 5.81039856e-08 4.79989417e-08 4.29464215e-08
      4.54726816e-08 5.05252018e-08 4.79989417e-08 4.54726816e-08
      3.78939014e-08 3.03151211e-08 2.52626009e-08 3.03151211e-08
      3.53676413e-08 4.29464215e-08 4.79989417e-08 4.04201614e-08
      4.79989417e-08 4.54726816e-08 4.29464215e-08 5.05252018e-08
      4.54726816e-08 4.29464215e-08 4.04201614e-08 3.78939014e-08
      3.28413812e-08 3.28413812e-08 3.03151211e-08 3.03151211e-08
      2.52626009e-08 1.26313005e-08 1.01050404e-08 1.51575605e-08
      1.01050404e-08 1.01050404e-08 1.26313005e-08 7.57878027e-09
      1.01050404e-08 1.01050404e-08 7.57878027e-09 5.05252018e-09
      5.05252018e-09 5.05252018e-09 2.52626009e-09 2.52626009e-09
      5.05252018e-09 2.52626009e-09 5.05252018e-09 5.05252018e-09
      5.05252018e-09 7.57878027e-09 7.57878027e-09 7.57878027e-09
      5.05252018e-09 2.52626009e-09 5.05252018e-09 7.57878027e-09
      1.01050404e-08 1.01050404e-08 1.01050404e-08 7.57878027e-09
      2.52626009e-09 5.05252018e-09 7.57878027e-09 2.52626009e-09
      5.05252018e-09 5.05252018e-09 5.05252018e-09 5.05252018e-09
      5.05252018e-09 2.52626009e-09 7.57878027e-09 7.57878027e-09
      5.05252018e-09 2.52626009e-09 2.52626009e-09 5.05252018e-09
      5.05252018e-09 0. 2.52626009e-09 7.57878027e-09 5.05252018e-09
      5.05252018e-09 5.05252018e-09 7.57878027e-09 1.26313005e-08
      1.01050404e-08 5.05252018e-09 7.57878027e-09 1.26313005e-08
      1.26313005e-08 1.26313005e-08 1.51575605e-08 1.76838206e-08
      2.02100807e-08 2.27363408e-08 2.77888628e-08 2.77888628e-08
      3.03151211e-08 3.53676413e-08 3.53676413e-08 3.53676413e-08
      3.53676413e-08 4.54726816e-08 7.32615462e-08 1.41470565e-07
      1.89469517e-07 1.71785686e-07 1.56628133e-07 1.61680646e-07
      1.49049356e-07 1.31365525e-07 1.18734228e-07 1.01050404e-07
      8.08403229e-08 5.81039856e-08 4.54726816e-08 3.28413812e-08
      2.27363408e-08 1.26313005e-08 1.01050404e-08 2.02100807e-08
      3.28413812e-08 6.06302422e-08 9.85241471e-08 1.18734228e-07
      1.33891788e-07 1.36418052e-07 1.26313012e-07 1.11155451e-07
      9.59978834e-08 7.57878027e-08 5.55777255e-08 4.29464215e-08
      3.03151211e-08 2.02100807e-08 1.01050404e-08 7.57878027e-09
      7.57878027e-09 7.57878027e-09 2.27363408e-08 5.55777255e-08
      9.34716269e-08 1.16207971e-07 1.16207971e-07 1.11155451e-07
      1.94522030e-07 1.99574558e-07 2.02100807e-07 2.02100807e-07
      2.02100807e-07 1.97048294e-07 1.94522030e-07 2.02100807e-07
      2.02100807e-07 1.99574558e-07 2.02100807e-07 2.02100807e-07
      1.99574558e-07 2.07153334e-07 2.17258375e-07 2.09679598e-07
      2.04627071e-07 1.99574558e-07 1.94522030e-07 1.94522030e-07
      1.97048294e-07 2.04627071e-07 2.04627071e-07 1.97048294e-07
      1.94522030e-07 1.94522030e-07 1.91995767e-07 1.86943254e-07
      1.86943254e-07 1.84416990e-07 1.84416990e-07 1.79364477e-07
      1.79364477e-07 1.79364477e-07 1.76838213e-07 1.71785686e-07
      1.66733173e-07 1.66733173e-07 1.71785686e-07 1.79364477e-07
      1.81890726e-07 1.79364477e-07 1.74311950e-07 1.71785686e-07
      1.69259437e-07 1.61680646e-07 1.56628133e-07 1.56628133e-07
      1.59154396e-07 1.64206909e-07 1.71785686e-07 1.76838213e-07
      1.79364477e-07 1.79364477e-07 1.79364477e-07 1.71785686e-07
      1.76838213e-07 1.74311950e-07 1.69259437e-07 1.61680646e-07
      1.49049356e-07 1.43996829e-07 1.51575605e-07 1.54101869e-07
      1.49049356e-07 1.54101869e-07 1.43996829e-07 1.38944316e-07
      1.33891788e-07 1.33891788e-07 1.33891788e-07 1.36418052e-07
      1.33891788e-07 1.31365525e-07 1.36418052e-07 1.28839275e-07
      1.36418052e-07 1.31365525e-07 1.31365525e-07 1.38944316e-07
      1.33891788e-07 1.36418052e-07 1.33891788e-07 1.28839275e-07
      1.36418052e-07 1.38944316e-07 1.31365525e-07 1.26313012e-07
      1.21260484e-07 1.23786748e-07 1.18734228e-07 1.13681708e-07
      1.06102924e-07 9.09453632e-08 8.08403229e-08 7.07352825e-08
      5.81039856e-08 6.06302422e-08 6.56827623e-08 6.82090260e-08
      6.31565058e-08 6.82090260e-08 6.82090260e-08 6.82090260e-08
      7.07352825e-08 6.56827623e-08 6.56827623e-08 7.32615462e-08
      7.32615462e-08 7.57878027e-08 7.32615462e-08 6.82090260e-08
      6.82090260e-08 6.82090260e-08 6.56827623e-08 6.06302422e-08
      6.06302422e-08 6.31565058e-08 5.81039856e-08 6.06302422e-08
      6.06302422e-08 6.31565058e-08 6.31565058e-08 6.06302422e-08
      6.06302422e-08 5.55777255e-08 5.55777255e-08 6.31565058e-08
      6.31565058e-08 6.06302422e-08 6.06302422e-08 6.56827623e-08
      6.82090260e-08 6.56827623e-08 6.56827623e-08 6.82090260e-08
      7.07352825e-08 6.82090260e-08 6.82090260e-08 6.56827623e-08
      6.06302422e-08 6.56827623e-08 6.56827623e-08 6.06302422e-08
      7.57878027e-08 1.21260484e-07 1.89469517e-07 2.19784638e-07
      2.07153334e-07 1.84416990e-07 1.56628133e-07 1.26313012e-07
      9.59978834e-08 6.56827623e-08 3.53676413e-08 2.52626009e-08
      3.03151211e-08 3.03151211e-08 3.53676413e-08 4.29464215e-08
      5.05252018e-08 5.81039856e-08 6.31565058e-08 7.32615462e-08
      1.01050404e-07 1.16207971e-07 1.11155451e-07 1.11155451e-07
      1.11155451e-07 1.16207971e-07 9.59978834e-08 4.54726816e-08
      1.26313005e-08 1.01050404e-08 1.01050404e-08 1.51575605e-08
      1.51575605e-08 2.52626009e-08 3.28413812e-08 3.78939014e-08
      5.05252018e-08 5.55777255e-08 5.05252018e-08 5.30514619e-08
      5.55777255e-08 5.30514619e-08 4.79989417e-08 5.30514619e-08
      6.31565058e-08 7.32615462e-08 6.56827623e-08 5.81039856e-08
      4.54726816e-08 3.53676413e-08 2.77888628e-08 3.78939014e-08
      4.79989417e-08 6.56827623e-08 8.33665865e-08 8.08403229e-08
      5.81039856e-08 4.54726816e-08 6.82090260e-08 1.06102924e-07
      1.26313012e-07 1.16207971e-07 8.33665865e-08 5.05252018e-08
      4.04201614e-08 4.04201614e-08 5.55777255e-08 7.57878027e-08
      8.84191067e-08 1.06102924e-07 8.58928431e-08 8.08403229e-08
      1.08629187e-07 1.18734228e-07 7.83140663e-08 7.07352825e-08
      9.34716269e-08 1.13681708e-07 1.28839275e-07 9.85241471e-08
      6.82090260e-08 5.81039856e-08 8.33665865e-08 1.23786748e-07
      1.59154396e-07 1.61680646e-07 1.43996829e-07 1.08629187e-07
      7.32615462e-08 6.06302422e-08 6.06302422e-08 6.06302422e-08
      5.30514619e-08 4.54726816e-08 5.05252018e-08 7.07352825e-08
      9.85241471e-08 1.03576667e-07 9.59978834e-08 9.34716269e-08
      9.09453632e-08 9.85241471e-08 1.18734228e-07 1.26313012e-07
      1.38944316e-07 1.51575605e-07 1.61680646e-07 1.59154396e-07
      1.49049356e-07 1.38944316e-07 1.26313012e-07 1.11155451e-07
      9.34716269e-08 8.33665865e-08 8.08403229e-08 8.84191067e-08
      9.09453632e-08 8.33665865e-08 7.32615462e-08 6.06302422e-08
      4.04201614e-08 2.52626009e-08 3.03151211e-08 3.78939014e-08
      4.54726816e-08 4.54726816e-08 4.54726816e-08 5.30514619e-08
      6.06302422e-08 6.82090260e-08 7.32615462e-08 7.07352825e-08
      6.31565058e-08 5.81039856e-08 5.30514619e-08 4.29464215e-08
      3.78939014e-08 3.78939014e-08 3.03151211e-08 2.77888628e-08
      1.76838206e-08 1.26313005e-08 1.76838206e-08 1.51575605e-08
      1.51575605e-08 1.76838206e-08 1.51575605e-08 1.76838206e-08
      2.02100807e-08 1.51575605e-08 1.26313005e-08 1.51575605e-08
      1.51575605e-08 1.51575605e-08 5.05252018e-09 2.52626009e-09
      5.05252018e-09 2.52626009e-09 7.57878027e-09 2.52626009e-09
      7.57878027e-09 7.57878027e-09 2.52626009e-09 5.05252018e-09
      5.05252018e-09 5.05252018e-09 5.05252018e-09 7.57878027e-09
      1.01050404e-08 1.01050404e-08 1.01050404e-08 5.05252018e-09
      5.05252018e-09 5.05252018e-09 2.52626009e-09 5.05252018e-09
      5.05252018e-09 5.05252018e-09 5.05252018e-09 5.05252018e-09
      7.57878027e-09 2.52626009e-09 2.52626009e-09 5.05252018e-09
      7.57878027e-09 7.57878027e-09 7.57878027e-09 2.52626009e-09
      2.52626009e-09 5.05252018e-09 5.05252018e-09 5.05252018e-09
      7.57878027e-09 5.05252018e-09 5.05252018e-09 7.57878027e-09
      7.57878027e-09 7.57878027e-09 1.01050404e-08 1.51575605e-08
      1.76838206e-08 1.51575605e-08 1.76838206e-08 2.02100807e-08
      2.27363408e-08 3.03151211e-08 2.52626009e-08 3.28413812e-08
      3.78939014e-08 3.53676413e-08 3.78939014e-08 4.29464215e-08
      4.29464215e-08 4.29464215e-08 6.31565058e-08 1.08629187e-07
      1.46523092e-07 1.54101869e-07 1.59154396e-07 1.81890726e-07
      1.69259437e-07 1.46523092e-07 1.38944316e-07 1.18734228e-07
      1.11155451e-07 1.03576667e-07 8.33665865e-08 5.81039856e-08
      3.78939014e-08 2.77888628e-08 2.27363408e-08 2.27363408e-08
      2.52626009e-08 3.53676413e-08 5.81039856e-08 8.84191067e-08
      1.11155451e-07 1.23786748e-07 1.23786748e-07 1.28839275e-07
      1.26313012e-07 1.16207971e-07 1.01050404e-07 8.58928431e-08
      6.56827623e-08 5.05252018e-08 3.03151211e-08 1.76838206e-08
      1.51575605e-08 7.57878027e-09 1.01050404e-08 2.27363408e-08
      5.81039856e-08 9.59978834e-08 1.13681708e-07 1.13681708e-07
      2.02100807e-07 2.07153334e-07 2.07153334e-07 2.02100807e-07
      1.99574558e-07 2.02100807e-07 2.04627071e-07 2.09679598e-07
      2.14732111e-07 2.17258375e-07 2.12205848e-07 2.07153334e-07
      2.07153334e-07 2.09679598e-07 2.12205848e-07 2.09679598e-07
      2.04627071e-07 1.97048294e-07 1.97048294e-07 1.97048294e-07
      1.99574558e-07 2.04627071e-07 2.04627071e-07 1.99574558e-07
      1.97048294e-07 1.99574558e-07 1.97048294e-07 1.94522030e-07
      1.89469517e-07 1.84416990e-07 1.81890726e-07 1.79364477e-07
      1.81890726e-07 1.84416990e-07 1.79364477e-07 1.71785686e-07
      1.71785686e-07 1.76838213e-07 1.79364477e-07 1.84416990e-07
      1.81890726e-07 1.76838213e-07 1.71785686e-07 1.71785686e-07
      1.69259437e-07 1.61680646e-07 1.56628133e-07 1.54101869e-07
      1.59154396e-07 1.66733173e-07 1.66733173e-07 1.71785686e-07
      1.69259437e-07 1.66733173e-07 1.66733173e-07 1.66733173e-07
      1.76838213e-07 1.74311950e-07 1.66733173e-07 1.59154396e-07
      1.49049356e-07 1.49049356e-07 1.51575605e-07 1.54101869e-07
      1.49049356e-07 1.56628133e-07 1.49049356e-07 1.46523092e-07
      1.38944316e-07 1.36418052e-07 1.38944316e-07 1.41470565e-07
      1.38944316e-07 1.36418052e-07 1.38944316e-07 1.33891788e-07
      1.36418052e-07 1.33891788e-07 1.33891788e-07 1.36418052e-07
      1.33891788e-07 1.36418052e-07 1.36418052e-07 1.33891788e-07
      1.38944316e-07 1.36418052e-07 1.33891788e-07 1.36418052e-07
      1.26313012e-07 1.26313012e-07 1.26313012e-07 1.16207971e-07
      1.03576667e-07 8.08403229e-08 6.56827623e-08 6.31565058e-08
      5.81039856e-08 6.06302422e-08 6.56827623e-08 6.56827623e-08
      6.56827623e-08 7.07352825e-08 7.32615462e-08 7.32615462e-08
      7.07352825e-08 6.82090260e-08 7.07352825e-08 7.57878027e-08
      7.57878027e-08 7.57878027e-08 7.32615462e-08 6.56827623e-08
      6.82090260e-08 6.82090260e-08 6.82090260e-08 6.31565058e-08
      6.31565058e-08 6.31565058e-08 6.06302422e-08 6.31565058e-08
      5.81039856e-08 6.06302422e-08 6.06302422e-08 5.81039856e-08
      6.06302422e-08 5.05252018e-08 5.30514619e-08 6.56827623e-08
      6.56827623e-08 6.31565058e-08 6.06302422e-08 6.06302422e-08
      6.56827623e-08 6.31565058e-08 6.31565058e-08 6.56827623e-08
      6.56827623e-08 6.56827623e-08 6.56827623e-08 6.31565058e-08
      6.31565058e-08 6.31565058e-08 6.06302422e-08 6.56827623e-08
      9.59978834e-08 1.64206909e-07 2.12205848e-07 2.14732111e-07
      1.91995767e-07 1.54101869e-07 1.26313012e-07 8.58928431e-08
      5.05252018e-08 3.03151211e-08 2.27363408e-08 2.52626009e-08
      3.53676413e-08 3.53676413e-08 4.29464215e-08 5.30514619e-08
      6.06302422e-08 6.82090260e-08 8.33665865e-08 1.08629187e-07
      1.33891788e-07 1.28839275e-07 1.23786748e-07 1.26313012e-07
      1.16207971e-07 8.58928431e-08 4.29464215e-08 1.51575605e-08
      7.57878027e-09 7.57878027e-09 1.26313005e-08 1.76838206e-08
      3.03151211e-08 4.04201614e-08 4.54726816e-08 5.05252018e-08
      5.55777255e-08 5.55777255e-08 5.81039856e-08 6.31565058e-08
      6.31565058e-08 5.55777255e-08 4.04201614e-08 2.77888628e-08
      2.77888628e-08 2.77888628e-08 2.02100807e-08 1.76838206e-08
      2.02100807e-08 2.52626009e-08 3.78939014e-08 5.30514619e-08
      6.06302422e-08 8.58928431e-08 9.34716269e-08 6.06302422e-08
      4.54726816e-08 6.06302422e-08 1.01050404e-07 1.33891788e-07
      1.21260484e-07 8.58928431e-08 4.79989417e-08 2.77888628e-08
      3.53676413e-08 5.55777255e-08 7.83140663e-08 9.85241471e-08
      9.85241471e-08 8.33665865e-08 7.32615462e-08 1.11155451e-07
      1.21260484e-07 9.85241471e-08 6.82090260e-08 8.58928431e-08
      1.23786748e-07 1.28839275e-07 1.01050404e-07 7.07352825e-08
      6.31565058e-08 9.59978834e-08 1.33891788e-07 1.69259437e-07
      1.76838213e-07 1.43996829e-07 1.03576667e-07 6.31565058e-08
      4.29464215e-08 4.54726816e-08 5.05252018e-08 5.30514619e-08
      5.05252018e-08 4.79989417e-08 5.55777255e-08 7.07352825e-08
      9.34716269e-08 1.03576667e-07 1.01050404e-07 9.85241471e-08
      1.08629187e-07 1.18734228e-07 1.11155451e-07 9.85241471e-08
      1.18734228e-07 1.38944316e-07 1.43996829e-07 1.51575605e-07
      1.56628133e-07 1.54101869e-07 1.38944316e-07 1.28839275e-07
      1.21260484e-07 1.28839275e-07 1.31365525e-07 1.26313012e-07
      1.18734228e-07 9.59978834e-08 8.33665865e-08 8.08403229e-08
      5.55777255e-08 2.52626009e-08 3.03151211e-08 4.29464215e-08
      4.54726816e-08 4.29464215e-08 4.04201614e-08 5.05252018e-08
      6.56827623e-08 7.83140663e-08 8.08403229e-08 1.01050404e-07
      9.59978834e-08 1.01050404e-07 9.85241471e-08 8.08403229e-08
      6.06302422e-08 5.30514619e-08 3.78939014e-08 2.77888628e-08
      2.02100807e-08 1.51575605e-08 1.26313005e-08 1.26313005e-08
      1.76838206e-08 2.02100807e-08 2.27363408e-08 3.03151211e-08
      3.28413812e-08 3.03151211e-08 2.77888628e-08 2.52626009e-08
      2.27363408e-08 2.27363408e-08 1.26313005e-08 5.05252018e-09
      7.57878027e-09 2.52626009e-09 7.57878027e-09 5.05252018e-09
      5.05252018e-09 2.52626009e-09 2.52626009e-09 2.52626009e-09
      2.52626009e-09 2.52626009e-09 2.52626009e-09 5.05252018e-09
      7.57878027e-09 7.57878027e-09 7.57878027e-09 5.05252018e-09
      7.57878027e-09 7.57878027e-09 5.05252018e-09 5.05252018e-09
      5.05252018e-09 2.52626009e-09 2.52626009e-09 5.05252018e-09
      5.05252018e-09 2.52626009e-09 2.52626009e-09 7.57878027e-09
      7.57878027e-09 7.57878027e-09 7.57878027e-09 5.05252018e-09
      5.05252018e-09 5.05252018e-09 2.52626009e-09 2.52626009e-09
      2.52626009e-09 5.05252018e-09 7.57878027e-09 1.01050404e-08
      1.01050404e-08 1.01050404e-08 1.26313005e-08 1.51575605e-08
      1.76838206e-08 1.76838206e-08 2.02100807e-08 2.27363408e-08
      2.27363408e-08 3.03151211e-08 2.77888628e-08 3.03151211e-08
      3.53676413e-08 3.78939014e-08 4.29464215e-08 4.54726816e-08
      4.29464215e-08 4.04201614e-08 4.29464215e-08 6.31565058e-08
      1.01050404e-07 1.41470565e-07 1.66733173e-07 1.91995767e-07
      1.84416990e-07 1.49049356e-07 1.41470565e-07 1.49049356e-07
      1.49049356e-07 1.41470565e-07 1.28839275e-07 1.01050404e-07
      7.57878027e-08 6.06302422e-08 4.54726816e-08 3.53676413e-08
      3.28413812e-08 2.52626009e-08 2.27363408e-08 4.29464215e-08
      6.82090260e-08 9.09453632e-08 1.08629187e-07 1.31365525e-07
      1.36418052e-07 1.26313012e-07 1.26313012e-07 1.26313012e-07
      1.13681708e-07 9.59978834e-08 6.56827623e-08 4.29464215e-08
      3.03151211e-08 1.51575605e-08 1.01050404e-08 1.26313005e-08
      2.27363408e-08 5.81039856e-08 9.85241471e-08 1.16207971e-07
      2.07153334e-07 2.07153334e-07 2.09679598e-07 2.04627071e-07
      1.97048294e-07 2.04627071e-07 2.12205848e-07 2.17258375e-07
      2.27363415e-07 2.32415942e-07 2.24837152e-07 2.17258375e-07
      2.17258375e-07 2.12205848e-07 2.12205848e-07 2.12205848e-07
      2.04627071e-07 1.99574558e-07 2.02100807e-07 1.99574558e-07
      1.99574558e-07 1.99574558e-07 2.02100807e-07 1.97048294e-07
      1.91995767e-07 2.02100807e-07 1.99574558e-07 1.97048294e-07
      1.91995767e-07 1.84416990e-07 1.79364477e-07 1.76838213e-07
      1.76838213e-07 1.79364477e-07 1.81890726e-07 1.76838213e-07
      1.76838213e-07 1.79364477e-07 1.79364477e-07 1.76838213e-07
      1.76838213e-07 1.74311950e-07 1.74311950e-07 1.71785686e-07
      1.66733173e-07 1.64206909e-07 1.56628133e-07 1.54101869e-07
      1.61680646e-07 1.69259437e-07 1.69259437e-07 1.71785686e-07
      1.66733173e-07 1.61680646e-07 1.59154396e-07 1.61680646e-07
      1.69259437e-07 1.66733173e-07 1.61680646e-07 1.56628133e-07
      1.51575605e-07 1.49049356e-07 1.54101869e-07 1.61680646e-07
      1.56628133e-07 1.56628133e-07 1.46523092e-07 1.43996829e-07
      1.38944316e-07 1.43996829e-07 1.46523092e-07 1.49049356e-07
      1.46523092e-07 1.38944316e-07 1.36418052e-07 1.41470565e-07
      1.38944316e-07 1.38944316e-07 1.38944316e-07 1.33891788e-07
      1.33891788e-07 1.31365525e-07 1.36418052e-07 1.33891788e-07
      1.38944316e-07 1.33891788e-07 1.33891788e-07 1.38944316e-07
      1.28839275e-07 1.31365525e-07 1.33891788e-07 1.16207971e-07
      9.09453632e-08 7.32615462e-08 5.81039856e-08 6.06302422e-08
      6.06302422e-08 6.31565058e-08 6.56827623e-08 6.31565058e-08
      6.82090260e-08 7.32615462e-08 7.32615462e-08 7.07352825e-08
      7.07352825e-08 6.56827623e-08 7.07352825e-08 7.57878027e-08
      7.57878027e-08 7.57878027e-08 7.32615462e-08 6.82090260e-08
      6.82090260e-08 6.56827623e-08 6.56827623e-08 6.31565058e-08
      6.31565058e-08 6.31565058e-08 6.31565058e-08 6.06302422e-08
      5.81039856e-08 6.06302422e-08 6.06302422e-08 6.06302422e-08
      6.56827623e-08 6.06302422e-08 5.81039856e-08 6.56827623e-08
      6.06302422e-08 6.06302422e-08 6.31565058e-08 6.06302422e-08
      6.06302422e-08 6.06302422e-08 6.06302422e-08 6.31565058e-08
      6.31565058e-08 6.31565058e-08 6.06302422e-08 6.31565058e-08
      6.56827623e-08 6.06302422e-08 6.31565058e-08 8.58928431e-08
      1.38944316e-07 1.91995767e-07 2.02100807e-07 1.91995767e-07
      1.69259437e-07 1.23786748e-07 7.57878027e-08 4.79989417e-08
      2.77888628e-08 2.27363408e-08 2.27363408e-08 2.77888628e-08
      3.28413812e-08 4.29464215e-08 5.55777255e-08 6.06302422e-08
      6.56827623e-08 8.84191067e-08 1.18734228e-07 1.33891788e-07
      1.31365525e-07 1.28839275e-07 1.33891788e-07 1.18734228e-07
      7.83140663e-08 3.28413812e-08 1.26313005e-08 1.01050404e-08
      1.26313005e-08 1.51575605e-08 2.77888628e-08 2.52626009e-08
      4.54726816e-08 5.05252018e-08 5.30514619e-08 5.55777255e-08
      5.55777255e-08 5.55777255e-08 6.82090260e-08 7.32615462e-08
      6.31565058e-08 4.54726816e-08 3.03151211e-08 2.02100807e-08
      1.76838206e-08 1.51575605e-08 1.76838206e-08 2.02100807e-08
      2.77888628e-08 3.78939014e-08 5.30514619e-08 7.07352825e-08
      9.34716269e-08 9.59978834e-08 6.82090260e-08 4.29464215e-08
      5.81039856e-08 9.34716269e-08 1.28839275e-07 1.28839275e-07
      8.58928431e-08 4.29464215e-08 2.77888628e-08 4.04201614e-08
      5.30514619e-08 7.32615462e-08 1.03576667e-07 1.01050404e-07
      8.08403229e-08 8.33665865e-08 1.01050404e-07 1.23786748e-07
      9.59978834e-08 7.83140663e-08 8.33665865e-08 1.13681708e-07
      1.23786748e-07 9.85241471e-08 6.31565058e-08 7.32615462e-08
      1.11155451e-07 1.49049356e-07 1.74311950e-07 1.76838213e-07
      1.46523092e-07 1.01050404e-07 5.81039856e-08 4.29464215e-08
      3.78939014e-08 5.05252018e-08 5.30514619e-08 5.55777255e-08
      5.30514619e-08 5.05252018e-08 6.31565058e-08 7.57878027e-08
      8.33665865e-08 9.59978834e-08 1.11155451e-07 1.21260484e-07
      1.21260484e-07 1.03576667e-07 8.08403229e-08 6.31565058e-08
      7.32615462e-08 8.33665865e-08 1.08629187e-07 1.13681708e-07
      1.26313012e-07 1.31365525e-07 1.21260484e-07 1.23786748e-07
      1.33891788e-07 1.36418052e-07 1.21260484e-07 9.34716269e-08
      7.07352825e-08 5.81039856e-08 6.82090260e-08 8.84191067e-08
      6.82090260e-08 3.53676413e-08 4.54726816e-08 5.05252018e-08
      3.78939014e-08 3.03151211e-08 2.77888628e-08 3.28413812e-08
      4.54726816e-08 5.30514619e-08 5.30514619e-08 6.82090260e-08
      9.09453632e-08 1.21260484e-07 1.33891788e-07 1.18734228e-07
      1.03576667e-07 8.58928431e-08 5.81039856e-08 4.04201614e-08
      2.52626009e-08 1.51575605e-08 1.76838206e-08 1.76838206e-08
      1.76838206e-08 2.02100807e-08 3.03151211e-08 4.29464215e-08
      4.79989417e-08 4.29464215e-08 4.29464215e-08 3.53676413e-08
      3.03151211e-08 3.03151211e-08 2.02100807e-08 1.76838206e-08
      1.01050404e-08 5.05252018e-09 5.05252018e-09 2.52626009e-09
      7.57878027e-09 5.05252018e-09 5.05252018e-09 7.57878027e-09
      7.57878027e-09 5.05252018e-09 5.05252018e-09 7.57878027e-09
      7.57878027e-09 7.57878027e-09 5.05252018e-09 2.52626009e-09
      5.05252018e-09 5.05252018e-09 2.52626009e-09 5.05252018e-09
      5.05252018e-09 5.05252018e-09 5.05252018e-09 5.05252018e-09
      5.05252018e-09 7.57878027e-09 5.05252018e-09 5.05252018e-09
      5.05252018e-09 5.05252018e-09 2.52626009e-09 2.52626009e-09
      5.05252018e-09 5.05252018e-09 5.05252018e-09 7.57878027e-09
      7.57878027e-09 7.57878027e-09 1.26313005e-08 1.26313005e-08
      1.01050404e-08 7.57878027e-09 1.01050404e-08 1.26313005e-08
      1.76838206e-08 1.76838206e-08 2.02100807e-08 2.27363408e-08
      2.77888628e-08 3.03151211e-08 3.28413812e-08 3.28413812e-08
      3.53676413e-08 4.04201614e-08 4.29464215e-08 4.29464215e-08
      4.04201614e-08 4.04201614e-08 4.04201614e-08 4.79989417e-08
      8.08403229e-08 1.33891788e-07 1.64206909e-07 1.71785686e-07
      1.66733173e-07 1.38944316e-07 1.49049356e-07 1.81890726e-07
      1.81890726e-07 1.64206909e-07 1.61680646e-07 1.43996829e-07
      1.26313012e-07 1.06102924e-07 8.58928431e-08 6.56827623e-08
      5.55777255e-08 4.29464215e-08 3.03151211e-08 3.03151211e-08
      2.77888628e-08 5.05252018e-08 8.08403229e-08 1.18734228e-07
      1.33891788e-07 1.31365525e-07 1.38944316e-07 1.43996829e-07
      1.33891788e-07 1.21260484e-07 9.85241471e-08 7.83140663e-08
      5.81039856e-08 3.53676413e-08 1.76838206e-08 1.26313005e-08
      5.05252018e-09 2.52626009e-08 6.31565058e-08 9.09453632e-08
      1.99574558e-07 1.99574558e-07 2.04627071e-07 1.99574558e-07
      1.94522030e-07 2.04627071e-07 2.12205848e-07 2.17258375e-07
      2.27363415e-07 2.32415942e-07 2.22310902e-07 2.17258375e-07
      2.17258375e-07 2.12205848e-07 2.09679598e-07 2.12205848e-07
      2.04627071e-07 2.02100807e-07 2.04627071e-07 2.04627071e-07
      2.02100807e-07 1.99574558e-07 1.99574558e-07 1.97048294e-07
      1.91995767e-07 1.99574558e-07 1.99574558e-07 1.97048294e-07
      1.91995767e-07 1.86943254e-07 1.81890726e-07 1.76838213e-07
      1.71785686e-07 1.74311950e-07 1.81890726e-07 1.84416990e-07
      1.84416990e-07 1.81890726e-07 1.76838213e-07 1.74311950e-07
      1.74311950e-07 1.76838213e-07 1.76838213e-07 1.76838213e-07
      1.69259437e-07 1.66733173e-07 1.56628133e-07 1.54101869e-07
      1.64206909e-07 1.71785686e-07 1.74311950e-07 1.74311950e-07
      1.74311950e-07 1.69259437e-07 1.61680646e-07 1.56628133e-07
      1.59154396e-07 1.61680646e-07 1.59154396e-07 1.59154396e-07
      1.54101869e-07 1.49049356e-07 1.49049356e-07 1.59154396e-07
      1.59154396e-07 1.59154396e-07 1.46523092e-07 1.46523092e-07
      1.41470565e-07 1.43996829e-07 1.51575605e-07 1.59154396e-07
      1.54101869e-07 1.41470565e-07 1.36418052e-07 1.38944316e-07
      1.33891788e-07 1.36418052e-07 1.38944316e-07 1.31365525e-07
      1.33891788e-07 1.28839275e-07 1.33891788e-07 1.33891788e-07
      1.36418052e-07 1.31365525e-07 1.31365525e-07 1.33891788e-07
      1.23786748e-07 1.28839275e-07 1.28839275e-07 1.01050404e-07
      7.32615462e-08 6.31565058e-08 6.31565058e-08 6.31565058e-08
      6.56827623e-08 6.82090260e-08 7.07352825e-08 7.07352825e-08
      7.32615462e-08 7.57878027e-08 7.07352825e-08 6.82090260e-08
      6.82090260e-08 6.82090260e-08 7.32615462e-08 7.57878027e-08
      7.32615462e-08 7.32615462e-08 7.07352825e-08 6.56827623e-08
      6.56827623e-08 6.31565058e-08 6.31565058e-08 6.31565058e-08
      6.31565058e-08 6.06302422e-08 6.06302422e-08 5.81039856e-08
      6.06302422e-08 6.56827623e-08 6.56827623e-08 6.31565058e-08
      6.56827623e-08 6.31565058e-08 6.06302422e-08 5.81039856e-08
      5.30514619e-08 6.06302422e-08 6.31565058e-08 6.31565058e-08
      6.06302422e-08 6.06302422e-08 6.31565058e-08 6.31565058e-08
      6.56827623e-08 6.56827623e-08 6.31565058e-08 6.31565058e-08
      6.82090260e-08 6.82090260e-08 8.33665865e-08 1.18734228e-07
      1.84416990e-07 2.04627071e-07 1.79364477e-07 1.56628133e-07
      1.26313012e-07 7.32615462e-08 2.77888628e-08 2.27363408e-08
      2.27363408e-08 2.77888628e-08 3.53676413e-08 4.04201614e-08
      5.05252018e-08 5.55777255e-08 6.56827623e-08 7.57878027e-08
      9.34716269e-08 1.21260484e-07 1.36418052e-07 1.26313012e-07
      1.21260484e-07 1.23786748e-07 1.06102924e-07 6.82090260e-08
      2.52626009e-08 1.26313005e-08 1.76838206e-08 2.02100807e-08
      1.76838206e-08 2.27363408e-08 3.53676413e-08 4.29464215e-08
      5.55777255e-08 6.06302422e-08 5.55777255e-08 6.06302422e-08
      6.31565058e-08 5.81039856e-08 7.32615462e-08 7.07352825e-08
      4.54726816e-08 3.28413812e-08 4.04201614e-08 4.29464215e-08
      3.03151211e-08 1.76838206e-08 2.27363408e-08 2.77888628e-08
      3.53676413e-08 5.05252018e-08 6.31565058e-08 9.09453632e-08
      1.06102924e-07 8.33665865e-08 4.54726816e-08 4.79989417e-08
      7.57878027e-08 1.18734228e-07 1.33891788e-07 1.03576667e-07
      5.30514619e-08 2.77888628e-08 3.28413812e-08 5.30514619e-08
      6.82090260e-08 8.33665865e-08 1.01050404e-07 8.33665865e-08
      7.83140663e-08 1.03576667e-07 1.11155451e-07 9.34716269e-08
      7.07352825e-08 9.09453632e-08 1.16207971e-07 1.13681708e-07
      8.58928431e-08 6.31565058e-08 7.32615462e-08 1.18734228e-07
      1.61680646e-07 1.76838213e-07 1.71785686e-07 1.41470565e-07
      9.09453632e-08 5.81039856e-08 3.78939014e-08 4.54726816e-08
      5.30514619e-08 6.56827623e-08 6.31565058e-08 6.31565058e-08
      6.31565058e-08 5.55777255e-08 5.81039856e-08 7.57878027e-08
      9.09453632e-08 1.06102924e-07 1.13681708e-07 1.13681708e-07
      9.59978834e-08 7.07352825e-08 5.81039856e-08 4.54726816e-08
      4.04201614e-08 4.04201614e-08 6.56827623e-08 6.82090260e-08
      8.33665865e-08 9.09453632e-08 8.84191067e-08 1.01050404e-07
      1.03576667e-07 8.58928431e-08 6.82090260e-08 4.79989417e-08
      3.28413812e-08 4.54726816e-08 7.07352825e-08 8.84191067e-08
      7.32615462e-08 5.30514619e-08 5.81039856e-08 5.05252018e-08
      2.52626009e-08 2.27363408e-08 2.77888628e-08 3.03151211e-08
      3.28413812e-08 3.53676413e-08 3.78939014e-08 3.78939014e-08
      5.30514619e-08 8.58928431e-08 1.18734228e-07 1.36418052e-07
      1.46523092e-07 1.28839275e-07 9.34716269e-08 6.06302422e-08
      3.03151211e-08 1.51575605e-08 2.27363408e-08 2.52626009e-08
      3.03151211e-08 3.03151211e-08 4.04201614e-08 5.55777255e-08
      6.31565058e-08 6.06302422e-08 5.55777255e-08 4.54726816e-08
      3.53676413e-08 3.28413812e-08 2.77888628e-08 2.52626009e-08
      2.27363408e-08 1.01050404e-08 7.57878027e-09 2.52626009e-09
      7.57878027e-09 1.01050404e-08 5.05252018e-09 5.05252018e-09
      5.05252018e-09 5.05252018e-09 5.05252018e-09 5.05252018e-09
      5.05252018e-09 5.05252018e-09 2.52626009e-09 2.52626009e-09
      2.52626009e-09 2.52626009e-09 5.05252018e-09 5.05252018e-09
      5.05252018e-09 5.05252018e-09 5.05252018e-09 5.05252018e-09
      5.05252018e-09 7.57878027e-09 7.57878027e-09 7.57878027e-09
      5.05252018e-09 5.05252018e-09 5.05252018e-09 2.52626009e-09
      5.05252018e-09 5.05252018e-09 2.52626009e-09 7.57878027e-09
      7.57878027e-09 5.05252018e-09 7.57878027e-09 1.01050404e-08
      1.01050404e-08 1.26313005e-08 1.51575605e-08 1.76838206e-08
      1.51575605e-08 2.02100807e-08 2.27363408e-08 2.77888628e-08
      3.28413812e-08 3.28413812e-08 3.53676413e-08 3.28413812e-08
      3.53676413e-08 4.04201614e-08 4.29464215e-08 3.78939014e-08
      3.53676413e-08 3.78939014e-08 4.04201614e-08 4.79989417e-08
      7.32615462e-08 1.21260484e-07 1.51575605e-07 1.54101869e-07
      1.46523092e-07 1.43996829e-07 1.76838213e-07 2.07153334e-07
      1.94522030e-07 1.79364477e-07 1.74311950e-07 1.64206909e-07
      1.51575605e-07 1.36418052e-07 1.21260484e-07 1.06102924e-07
      9.59978834e-08 7.83140663e-08 5.30514619e-08 3.28413812e-08
      1.76838206e-08 2.27363408e-08 4.54726816e-08 8.84191067e-08
      1.13681708e-07 1.26313012e-07 1.38944316e-07 1.43996829e-07
      1.33891788e-07 1.26313012e-07 1.21260484e-07 1.13681708e-07
      9.59978834e-08 6.82090260e-08 3.53676413e-08 2.02100807e-08
      1.26313005e-08 1.26313005e-08 2.52626009e-08 5.55777255e-08
      1.99574558e-07 2.02100807e-07 2.04627071e-07 2.04627071e-07
      2.02100807e-07 2.09679598e-07 2.12205848e-07 2.17258375e-07
      2.19784638e-07 2.19784638e-07 2.12205848e-07 2.07153334e-07
      2.09679598e-07 2.12205848e-07 2.14732111e-07 2.12205848e-07
      2.07153334e-07 2.07153334e-07 2.09679598e-07 2.12205848e-07
      2.07153334e-07 1.99574558e-07 1.99574558e-07 1.99574558e-07
      1.91995767e-07 1.94522030e-07 1.94522030e-07 1.94522030e-07
      1.91995767e-07 1.89469517e-07 1.86943254e-07 1.81890726e-07
      1.76838213e-07 1.76838213e-07 1.84416990e-07 1.86943254e-07
      1.86943254e-07 1.86943254e-07 1.86943254e-07 1.79364477e-07
      1.76838213e-07 1.76838213e-07 1.79364477e-07 1.79364477e-07
      1.74311950e-07 1.74311950e-07 1.64206909e-07 1.64206909e-07
      1.69259437e-07 1.71785686e-07 1.76838213e-07 1.76838213e-07
      1.79364477e-07 1.79364477e-07 1.69259437e-07 1.61680646e-07
      1.51575605e-07 1.54101869e-07 1.54101869e-07 1.54101869e-07
      1.54101869e-07 1.46523092e-07 1.49049356e-07 1.64206909e-07
      1.64206909e-07 1.61680646e-07 1.51575605e-07 1.49049356e-07
      1.38944316e-07 1.43996829e-07 1.51575605e-07 1.59154396e-07
      1.56628133e-07 1.49049356e-07 1.49049356e-07 1.38944316e-07
      1.33891788e-07 1.33891788e-07 1.31365525e-07 1.28839275e-07
      1.31365525e-07 1.31365525e-07 1.33891788e-07 1.33891788e-07
      1.36418052e-07 1.31365525e-07 1.28839275e-07 1.31365525e-07
      1.23786748e-07 1.26313012e-07 1.16207971e-07 8.58928431e-08
      6.82090260e-08 6.06302422e-08 6.31565058e-08 6.06302422e-08
      6.31565058e-08 6.82090260e-08 7.07352825e-08 7.32615462e-08
      7.57878027e-08 7.57878027e-08 7.32615462e-08 6.82090260e-08
      7.07352825e-08 7.32615462e-08 7.57878027e-08 7.83140663e-08
      7.07352825e-08 7.07352825e-08 6.82090260e-08 6.06302422e-08
      6.31565058e-08 6.06302422e-08 6.06302422e-08 6.31565058e-08
      6.06302422e-08 6.06302422e-08 6.06302422e-08 6.31565058e-08
      6.31565058e-08 6.56827623e-08 6.31565058e-08 6.06302422e-08
      6.06302422e-08 5.81039856e-08 6.06302422e-08 6.56827623e-08
      6.06302422e-08 6.56827623e-08 6.56827623e-08 6.82090260e-08
      6.56827623e-08 6.56827623e-08 6.56827623e-08 6.56827623e-08
      6.56827623e-08 6.82090260e-08 6.31565058e-08 6.56827623e-08
      7.57878027e-08 8.84191067e-08 1.21260484e-07 1.56628133e-07
      1.97048294e-07 1.86943254e-07 1.46523092e-07 1.13681708e-07
      7.57878027e-08 2.77888628e-08 2.27363408e-08 2.52626009e-08
      3.03151211e-08 3.53676413e-08 4.29464215e-08 5.05252018e-08
      5.81039856e-08 6.56827623e-08 8.58928431e-08 1.16207971e-07
      1.31365525e-07 1.31365525e-07 1.31365525e-07 1.23786748e-07
      1.11155451e-07 8.84191067e-08 4.79989417e-08 2.27363408e-08
      1.51575605e-08 1.26313005e-08 1.76838206e-08 2.27363408e-08
      3.03151211e-08 4.04201614e-08 4.54726816e-08 5.55777255e-08
      6.06302422e-08 6.06302422e-08 5.81039856e-08 6.06302422e-08
      6.56827623e-08 6.56827623e-08 6.56827623e-08 5.30514619e-08
      4.29464215e-08 4.79989417e-08 7.32615462e-08 7.83140663e-08
      4.54726816e-08 1.51575605e-08 2.02100807e-08 2.77888628e-08
      4.29464215e-08 6.31565058e-08 8.84191067e-08 1.11155451e-07
      8.58928431e-08 5.81039856e-08 4.54726816e-08 6.06302422e-08
      1.01050404e-07 1.31365525e-07 1.16207971e-07 7.83140663e-08
      3.28413812e-08 3.03151211e-08 5.05252018e-08 6.56827623e-08
      7.83140663e-08 9.09453632e-08 8.84191067e-08 8.58928431e-08
      1.06102924e-07 1.13681708e-07 8.33665865e-08 7.57878027e-08
      9.34716269e-08 1.21260484e-07 1.16207971e-07 8.33665865e-08
      6.82090260e-08 9.34716269e-08 1.38944316e-07 1.69259437e-07
      1.66733173e-07 1.46523092e-07 1.16207971e-07 7.83140663e-08
      5.05252018e-08 5.05252018e-08 6.56827623e-08 9.09453632e-08
      1.01050404e-07 1.13681708e-07 1.06102924e-07 9.85241471e-08
      1.01050404e-07 9.09453632e-08 7.83140663e-08 7.83140663e-08
      1.03576667e-07 1.26313012e-07 1.21260484e-07 1.01050404e-07
      7.07352825e-08 6.06302422e-08 6.31565058e-08 4.54726816e-08
      3.03151211e-08 2.77888628e-08 2.77888628e-08 2.77888628e-08
      3.78939014e-08 4.79989417e-08 5.05252018e-08 5.81039856e-08
      5.30514619e-08 3.28413812e-08 2.52626009e-08 2.52626009e-08
      2.77888628e-08 5.55777255e-08 8.33665865e-08 9.34716269e-08
      8.08403229e-08 6.82090260e-08 6.06302422e-08 4.04201614e-08
      1.76838206e-08 2.02100807e-08 3.53676413e-08 4.29464215e-08
      5.05252018e-08 5.55777255e-08 5.81039856e-08 5.81039856e-08
      4.29464215e-08 4.54726816e-08 7.32615462e-08 1.13681708e-07
      1.43996829e-07 1.41470565e-07 1.08629187e-07 6.82090260e-08
      3.28413812e-08 2.02100807e-08 2.77888628e-08 3.03151211e-08
      3.28413812e-08 4.29464215e-08 5.05252018e-08 6.06302422e-08
      6.56827623e-08 6.31565058e-08 6.06302422e-08 5.30514619e-08
      4.04201614e-08 3.53676413e-08 2.77888628e-08 2.77888628e-08
      3.03151211e-08 2.02100807e-08 1.51575605e-08 5.05252018e-09
      5.05252018e-09 7.57878027e-09 5.05252018e-09 5.05252018e-09
      7.57878027e-09 5.05252018e-09 5.05252018e-09 5.05252018e-09
      5.05252018e-09 0. 0. 2.52626009e-09 2.52626009e-09 5.05252018e-09
      7.57878027e-09 5.05252018e-09 5.05252018e-09 7.57878027e-09
      7.57878027e-09 7.57878027e-09 7.57878027e-09 2.52626009e-09
      2.52626009e-09 2.52626009e-09 5.05252018e-09 5.05252018e-09
      5.05252018e-09 5.05252018e-09 1.01050404e-08 1.01050404e-08
      5.05252018e-09 7.57878027e-09 7.57878027e-09 5.05252018e-09
      1.01050404e-08 1.26313005e-08 1.26313005e-08 1.26313005e-08
      1.76838206e-08 1.76838206e-08 1.76838206e-08 2.27363408e-08
      2.27363408e-08 2.77888628e-08 3.28413812e-08 3.28413812e-08
      3.28413812e-08 3.28413812e-08 3.53676413e-08 4.04201614e-08
      4.29464215e-08 4.04201614e-08 4.29464215e-08 4.04201614e-08
      3.78939014e-08 4.29464215e-08 6.31565058e-08 1.06102924e-07
      1.33891788e-07 1.41470565e-07 1.38944316e-07 1.61680646e-07
      2.07153334e-07 2.14732111e-07 1.97048294e-07 1.81890726e-07
      1.69259437e-07 1.69259437e-07 1.59154396e-07 1.43996829e-07
      1.38944316e-07 1.41470565e-07 1.43996829e-07 1.31365525e-07
      9.34716269e-08 5.30514619e-08 3.03151211e-08 1.26313005e-08
      2.02100807e-08 4.29464215e-08 7.32615462e-08 9.59978834e-08
      1.16207971e-07 1.23786748e-07 1.21260484e-07 1.28839275e-07
      1.33891788e-07 1.33891788e-07 1.21260484e-07 9.59978834e-08
      6.56827623e-08 4.04201614e-08 2.77888628e-08 1.51575605e-08
      1.01050404e-08 3.03151211e-08 1.97048294e-07 2.04627071e-07
      2.04627071e-07 2.04627071e-07 2.09679598e-07 2.07153334e-07
      2.09679598e-07 2.14732111e-07 2.14732111e-07 2.07153334e-07
      2.09679598e-07 2.07153334e-07 2.09679598e-07 2.17258375e-07
      2.22310902e-07 2.14732111e-07 2.12205848e-07 2.14732111e-07
      2.17258375e-07 2.22310902e-07 2.17258375e-07 2.07153334e-07
      2.04627071e-07 2.04627071e-07 1.99574558e-07 1.94522030e-07
      1.94522030e-07 1.94522030e-07 1.94522030e-07 1.94522030e-07
      1.91995767e-07 1.91995767e-07 1.86943254e-07 1.86943254e-07
      1.86943254e-07 1.86943254e-07 1.86943254e-07 1.89469517e-07
      1.86943254e-07 1.79364477e-07 1.76838213e-07 1.79364477e-07
      1.81890726e-07 1.81890726e-07 1.84416990e-07 1.84416990e-07
      1.71785686e-07 1.71785686e-07 1.76838213e-07 1.74311950e-07
      1.79364477e-07 1.74311950e-07 1.79364477e-07 1.81890726e-07
      1.74311950e-07 1.64206909e-07 1.54101869e-07 1.54101869e-07
      1.54101869e-07 1.51575605e-07 1.51575605e-07 1.46523092e-07
      1.49049356e-07 1.61680646e-07 1.61680646e-07 1.66733173e-07
      1.64206909e-07 1.59154396e-07 1.43996829e-07 1.49049356e-07
      1.51575605e-07 1.54101869e-07 1.51575605e-07 1.51575605e-07
      1.54101869e-07 1.51575605e-07 1.43996829e-07 1.36418052e-07
      1.28839275e-07 1.28839275e-07 1.26313012e-07 1.31365525e-07
      1.33891788e-07 1.33891788e-07 1.33891788e-07 1.31365525e-07
      1.26313012e-07 1.31365525e-07 1.26313012e-07 1.18734228e-07
      1.01050404e-07 7.57878027e-08 6.82090260e-08 6.56827623e-08
      7.07352825e-08 6.56827623e-08 7.07352825e-08 7.07352825e-08
      7.07352825e-08 7.07352825e-08 7.32615462e-08 7.57878027e-08
      7.07352825e-08 6.82090260e-08 7.07352825e-08 6.82090260e-08
      7.32615462e-08 7.57878027e-08 7.07352825e-08 7.07352825e-08
      6.82090260e-08 6.31565058e-08 6.31565058e-08 6.06302422e-08
      6.06302422e-08 6.56827623e-08 6.06302422e-08 6.06302422e-08
      6.31565058e-08 6.31565058e-08 6.06302422e-08 6.31565058e-08
      6.06302422e-08 6.06302422e-08 6.56827623e-08 6.31565058e-08
      6.56827623e-08 6.56827623e-08 6.06302422e-08 6.56827623e-08
      6.56827623e-08 6.82090260e-08 6.31565058e-08 6.31565058e-08
      6.56827623e-08 6.31565058e-08 6.31565058e-08 6.56827623e-08
      6.31565058e-08 7.07352825e-08 8.58928431e-08 1.11155451e-07
      1.54101869e-07 1.84416990e-07 1.86943254e-07 1.49049356e-07
      1.06102924e-07 6.82090260e-08 3.78939014e-08 2.02100807e-08
      2.27363408e-08 2.77888628e-08 3.28413812e-08 4.04201614e-08
      5.30514619e-08 6.06302422e-08 7.32615462e-08 9.09453632e-08
      1.18734228e-07 1.36418052e-07 1.33891788e-07 1.23786748e-07
      1.18734228e-07 9.59978834e-08 6.31565058e-08 3.78939014e-08
      1.76838206e-08 1.51575605e-08 1.76838206e-08 1.51575605e-08
      2.27363408e-08 3.53676413e-08 4.04201614e-08 4.79989417e-08
      6.06302422e-08 5.81039856e-08 5.81039856e-08 6.31565058e-08
      6.56827623e-08 6.31565058e-08 6.82090260e-08 7.07352825e-08
      5.55777255e-08 4.79989417e-08 6.06302422e-08 8.08403229e-08
      9.59978834e-08 9.34716269e-08 5.05252018e-08 1.26313005e-08
      2.27363408e-08 3.78939014e-08 5.30514619e-08 7.83140663e-08
      1.06102924e-07 1.06102924e-07 6.06302422e-08 4.79989417e-08
      6.06302422e-08 8.84191067e-08 1.23786748e-07 1.26313012e-07
      8.58928431e-08 5.30514619e-08 3.28413812e-08 4.04201614e-08
      6.31565058e-08 8.08403229e-08 8.08403229e-08 7.32615462e-08
      6.56827623e-08 8.58928431e-08 1.06102924e-07 8.58928431e-08
      6.56827623e-08 1.01050404e-07 1.26313012e-07 1.13681708e-07
      7.83140663e-08 6.56827623e-08 9.85241471e-08 1.56628133e-07
      1.76838213e-07 1.61680646e-07 1.28839275e-07 7.83140663e-08
      5.05252018e-08 4.04201614e-08 5.30514619e-08 8.08403229e-08
      1.16207971e-07 1.36418052e-07 1.51575605e-07 1.71785686e-07
      1.69259437e-07 1.66733173e-07 1.69259437e-07 1.54101869e-07
      1.31365525e-07 1.23786748e-07 1.41470565e-07 1.41470565e-07
      1.11155451e-07 8.08403229e-08 5.81039856e-08 5.81039856e-08
      5.55777255e-08 4.04201614e-08 3.53676413e-08 3.03151211e-08
      2.02100807e-08 1.26313005e-08 1.26313005e-08 1.51575605e-08
      1.76838206e-08 2.27363408e-08 2.02100807e-08 1.26313005e-08
      1.01050404e-08 2.27363408e-08 4.04201614e-08 6.82090260e-08
      9.09453632e-08 9.85241471e-08 9.34716269e-08 8.58928431e-08
      6.31565058e-08 3.03151211e-08 1.76838206e-08 3.28413812e-08
      4.54726816e-08 5.81039856e-08 7.32615462e-08 8.58928431e-08
      8.84191067e-08 8.08403229e-08 6.56827623e-08 4.54726816e-08
      3.78939014e-08 6.31565058e-08 1.03576667e-07 1.23786748e-07
      1.01050404e-07 6.31565058e-08 3.28413812e-08 3.28413812e-08
      3.78939014e-08 3.03151211e-08 3.28413812e-08 4.79989417e-08
      5.81039856e-08 6.31565058e-08 6.06302422e-08 5.55777255e-08
      5.30514619e-08 5.55777255e-08 4.54726816e-08 4.04201614e-08
      3.03151211e-08 3.53676413e-08 2.77888628e-08 2.52626009e-08
      2.27363408e-08 1.01050404e-08 7.57878027e-09 7.57878027e-09
      7.57878027e-09 7.57878027e-09 7.57878027e-09 7.57878027e-09
      7.57878027e-09 7.57878027e-09 7.57878027e-09 5.05252018e-09
      2.52626009e-09 5.05252018e-09 2.52626009e-09 2.52626009e-09
      7.57878027e-09 2.52626009e-09 2.52626009e-09 5.05252018e-09
      7.57878027e-09 7.57878027e-09 7.57878027e-09 5.05252018e-09
      2.52626009e-09 2.52626009e-09 2.52626009e-09 5.05252018e-09
      5.05252018e-09 2.52626009e-09 1.01050404e-08 7.57878027e-09
      5.05252018e-09 1.26313005e-08 1.26313005e-08 7.57878027e-09
      7.57878027e-09 1.01050404e-08 1.26313005e-08 1.26313005e-08
      1.51575605e-08 2.02100807e-08 2.27363408e-08 2.77888628e-08
      2.77888628e-08 3.03151211e-08 3.28413812e-08 3.03151211e-08
      3.53676413e-08 3.53676413e-08 3.78939014e-08 3.78939014e-08
      4.04201614e-08 3.78939014e-08 4.29464215e-08 3.78939014e-08
      3.78939014e-08 4.04201614e-08 5.55777255e-08 9.34716269e-08
      1.21260484e-07 1.36418052e-07 1.43996829e-07 1.79364477e-07
      2.14732111e-07 1.99574558e-07 1.81890726e-07 1.66733173e-07
      1.66733173e-07 1.89469517e-07 1.86943254e-07 1.66733173e-07
      1.66733173e-07 1.81890726e-07 1.74311950e-07 1.54101869e-07
      1.23786748e-07 8.33665865e-08 5.05252018e-08 3.03151211e-08
      2.02100807e-08 2.02100807e-08 3.78939014e-08 6.06302422e-08
      8.33665865e-08 9.09453632e-08 9.85241471e-08 1.18734228e-07
      1.33891788e-07 1.33891788e-07 1.28839275e-07 1.11155451e-07
      9.09453632e-08 6.82090260e-08 4.54726816e-08 2.77888628e-08
      1.26313005e-08 1.01050404e-08 2.02100807e-07 2.02100807e-07
      2.04627071e-07 1.99574558e-07 2.04627071e-07 2.07153334e-07
      2.09679598e-07 2.09679598e-07 2.04627071e-07 2.02100807e-07
      2.09679598e-07 2.09679598e-07 2.12205848e-07 2.19784638e-07
      2.22310902e-07 2.17258375e-07 2.22310902e-07 2.22310902e-07
      2.19784638e-07 2.32415942e-07 2.24837152e-07 2.14732111e-07
      2.09679598e-07 2.07153334e-07 2.04627071e-07 1.99574558e-07
      1.94522030e-07 1.94522030e-07 1.97048294e-07 1.91995767e-07
      1.94522030e-07 2.02100807e-07 1.94522030e-07 1.89469517e-07
      1.89469517e-07 1.84416990e-07 1.81890726e-07 1.86943254e-07
      1.84416990e-07 1.76838213e-07 1.74311950e-07 1.76838213e-07
      1.81890726e-07 1.86943254e-07 1.86943254e-07 1.89469517e-07
      1.86943254e-07 1.84416990e-07 1.81890726e-07 1.74311950e-07
      1.76838213e-07 1.69259437e-07 1.76838213e-07 1.74311950e-07
      1.74311950e-07 1.71785686e-07 1.64206909e-07 1.59154396e-07
      1.54101869e-07 1.46523092e-07 1.49049356e-07 1.49049356e-07
      1.49049356e-07 1.56628133e-07 1.61680646e-07 1.66733173e-07
      1.71785686e-07 1.64206909e-07 1.49049356e-07 1.46523092e-07
      1.46523092e-07 1.49049356e-07 1.51575605e-07 1.54101869e-07
      1.59154396e-07 1.54101869e-07 1.46523092e-07 1.38944316e-07
      1.33891788e-07 1.26313012e-07 1.28839275e-07 1.28839275e-07
      1.33891788e-07 1.33891788e-07 1.33891788e-07 1.36418052e-07
      1.31365525e-07 1.28839275e-07 1.26313012e-07 1.03576667e-07
      8.08403229e-08 7.32615462e-08 6.82090260e-08 7.07352825e-08
      6.82090260e-08 7.07352825e-08 7.32615462e-08 7.32615462e-08
      7.32615462e-08 7.57878027e-08 7.57878027e-08 7.07352825e-08
      7.07352825e-08 7.07352825e-08 7.07352825e-08 7.57878027e-08
      7.57878027e-08 7.57878027e-08 7.32615462e-08 7.07352825e-08
      7.07352825e-08 6.82090260e-08 6.56827623e-08 6.06302422e-08
      6.06302422e-08 6.31565058e-08 6.06302422e-08 6.06302422e-08
      6.06302422e-08 6.31565058e-08 6.31565058e-08 6.56827623e-08
      6.56827623e-08 6.82090260e-08 7.07352825e-08 6.82090260e-08
      6.56827623e-08 6.56827623e-08 6.06302422e-08 6.06302422e-08
      6.06302422e-08 6.56827623e-08 6.82090260e-08 6.31565058e-08
      6.06302422e-08 6.56827623e-08 6.31565058e-08 6.06302422e-08
      6.56827623e-08 7.32615462e-08 9.09453632e-08 1.31365525e-07
      1.71785686e-07 1.91995767e-07 1.69259437e-07 1.21260484e-07
      7.32615462e-08 4.04201614e-08 2.77888628e-08 3.28413812e-08
      3.03151211e-08 3.53676413e-08 4.29464215e-08 5.05252018e-08
      6.31565058e-08 7.07352825e-08 9.09453632e-08 1.26313012e-07
      1.38944316e-07 1.31365525e-07 1.28839275e-07 1.13681708e-07
      9.09453632e-08 5.81039856e-08 2.77888628e-08 1.76838206e-08
      1.51575605e-08 1.76838206e-08 2.02100807e-08 2.77888628e-08
      3.53676413e-08 4.54726816e-08 5.05252018e-08 5.81039856e-08
      6.82090260e-08 6.82090260e-08 6.56827623e-08 6.06302422e-08
      6.31565058e-08 7.57878027e-08 7.07352825e-08 6.06302422e-08
      5.55777255e-08 6.06302422e-08 8.58928431e-08 1.08629187e-07
      1.13681708e-07 8.58928431e-08 4.04201614e-08 1.51575605e-08
      3.53676413e-08 5.05252018e-08 7.07352825e-08 9.85241471e-08
      1.11155451e-07 7.83140663e-08 5.05252018e-08 5.55777255e-08
      8.08403229e-08 1.23786748e-07 1.31365525e-07 1.11155451e-07
      6.56827623e-08 4.29464215e-08 3.78939014e-08 5.81039856e-08
      7.83140663e-08 8.58928431e-08 6.82090260e-08 4.79989417e-08
      4.29464215e-08 6.06302422e-08 7.32615462e-08 7.07352825e-08
      9.09453632e-08 1.26313012e-07 1.18734228e-07 8.58928431e-08
      6.82090260e-08 9.59978834e-08 1.49049356e-07 1.76838213e-07
      1.51575605e-07 1.08629187e-07 5.81039856e-08 3.28413812e-08
      3.53676413e-08 5.81039856e-08 9.85241471e-08 1.21260484e-07
      1.23786748e-07 1.21260484e-07 1.41470565e-07 1.79364477e-07
      1.89469517e-07 1.99574558e-07 2.09679598e-07 1.94522030e-07
      1.64206909e-07 1.61680646e-07 1.51575605e-07 1.23786748e-07
      8.58928431e-08 6.31565058e-08 5.05252018e-08 5.55777255e-08
      4.54726816e-08 4.29464215e-08 4.54726816e-08 3.53676413e-08
      2.52626009e-08 1.26313005e-08 1.01050404e-08 7.57878027e-09
      1.01050404e-08 1.01050404e-08 1.26313005e-08 1.01050404e-08
      1.01050404e-08 2.27363408e-08 5.30514619e-08 8.08403229e-08
      9.34716269e-08 1.01050404e-07 1.03576667e-07 9.09453632e-08
      5.55777255e-08 2.52626009e-08 3.03151211e-08 5.05252018e-08
      6.82090260e-08 8.33665865e-08 8.58928431e-08 9.34716269e-08
      7.83140663e-08 7.57878027e-08 8.08403229e-08 6.31565058e-08
      4.54726816e-08 6.06302422e-08 9.85241471e-08 1.21260484e-07
      8.08403229e-08 5.30514619e-08 3.28413812e-08 3.78939014e-08
      4.54726816e-08 3.53676413e-08 4.29464215e-08 5.55777255e-08
      6.56827623e-08 6.56827623e-08 6.06302422e-08 5.55777255e-08
      6.06302422e-08 6.82090260e-08 6.06302422e-08 5.05252018e-08
      4.54726816e-08 3.78939014e-08 3.78939014e-08 3.28413812e-08
      2.52626009e-08 1.51575605e-08 1.26313005e-08 1.01050404e-08
      1.01050404e-08 5.05252018e-09 5.05252018e-09 7.57878027e-09
      2.52626009e-09 5.05252018e-09 5.05252018e-09 5.05252018e-09
      5.05252018e-09 5.05252018e-09 5.05252018e-09 2.52626009e-09
      2.52626009e-09 2.52626009e-09 2.52626009e-09 2.52626009e-09
      2.52626009e-09 2.52626009e-09 5.05252018e-09 5.05252018e-09
      5.05252018e-09 7.57878027e-09 5.05252018e-09 5.05252018e-09
      5.05252018e-09 7.57878027e-09 5.05252018e-09 5.05252018e-09
      7.57878027e-09 1.01050404e-08 1.01050404e-08 1.01050404e-08
      1.26313005e-08 1.01050404e-08 1.26313005e-08 1.26313005e-08
      1.76838206e-08 2.02100807e-08 2.52626009e-08 2.27363408e-08
      2.52626009e-08 3.28413812e-08 3.53676413e-08 3.03151211e-08
      3.78939014e-08 3.53676413e-08 3.78939014e-08 4.04201614e-08
      4.04201614e-08 4.04201614e-08 4.04201614e-08 3.78939014e-08
      3.53676413e-08 3.53676413e-08 4.54726816e-08 7.32615462e-08
      1.03576667e-07 1.23786748e-07 1.46523092e-07 1.91995767e-07
      2.12205848e-07 1.84416990e-07 1.64206909e-07 1.56628133e-07
      1.71785686e-07 2.19784638e-07 2.22310902e-07 1.97048294e-07
      1.86943254e-07 1.81890726e-07 1.71785686e-07 1.54101869e-07
      1.36418052e-07 1.11155451e-07 8.58928431e-08 6.56827623e-08
      4.54726816e-08 3.28413812e-08 2.52626009e-08 2.52626009e-08
      4.04201614e-08 5.05252018e-08 6.82090260e-08 8.84191067e-08
      1.11155451e-07 1.13681708e-07 1.18734228e-07 1.16207971e-07
      1.08629187e-07 9.85241471e-08 7.07352825e-08 5.55777255e-08
      2.52626009e-08 1.51575605e-08 2.07153334e-07 2.02100807e-07
      2.07153334e-07 2.02100807e-07 1.99574558e-07 2.04627071e-07
      2.09679598e-07 2.12205848e-07 2.04627071e-07 2.04627071e-07
      2.07153334e-07 2.07153334e-07 2.07153334e-07 2.12205848e-07
      2.14732111e-07 2.22310902e-07 2.29889679e-07 2.32415942e-07
      2.27363415e-07 2.24837152e-07 2.14732111e-07 2.07153334e-07
      2.09679598e-07 2.04627071e-07 2.02100807e-07 2.04627071e-07
      1.97048294e-07 1.94522030e-07 1.94522030e-07 1.91995767e-07
      2.02100807e-07 2.12205848e-07 2.02100807e-07 1.97048294e-07
      1.94522030e-07 1.89469517e-07 1.89469517e-07 1.86943254e-07
      1.81890726e-07 1.76838213e-07 1.79364477e-07 1.76838213e-07
      1.79364477e-07 1.84416990e-07 1.84416990e-07 1.89469517e-07
      1.91995767e-07 1.86943254e-07 1.81890726e-07 1.76838213e-07
      1.74311950e-07 1.69259437e-07 1.74311950e-07 1.74311950e-07
      1.76838213e-07 1.76838213e-07 1.69259437e-07 1.66733173e-07
      1.59154396e-07 1.49049356e-07 1.49049356e-07 1.46523092e-07
      1.43996829e-07 1.51575605e-07 1.56628133e-07 1.64206909e-07
      1.71785686e-07 1.69259437e-07 1.56628133e-07 1.49049356e-07
      1.43996829e-07 1.43996829e-07 1.49049356e-07 1.54101869e-07
      1.54101869e-07 1.54101869e-07 1.49049356e-07 1.43996829e-07
      1.41470565e-07 1.31365525e-07 1.31365525e-07 1.28839275e-07
      1.31365525e-07 1.31365525e-07 1.31365525e-07 1.36418052e-07
      1.31365525e-07 1.26313012e-07 1.21260484e-07 9.34716269e-08
      7.57878027e-08 7.07352825e-08 6.82090260e-08 7.32615462e-08
      6.82090260e-08 7.32615462e-08 7.32615462e-08 7.07352825e-08
      7.32615462e-08 7.83140663e-08 7.57878027e-08 6.82090260e-08
      6.82090260e-08 7.07352825e-08 7.07352825e-08 7.57878027e-08
      7.32615462e-08 7.32615462e-08 7.07352825e-08 6.56827623e-08
      6.56827623e-08 6.31565058e-08 6.31565058e-08 6.31565058e-08
      6.06302422e-08 6.06302422e-08 5.81039856e-08 5.81039856e-08
      5.81039856e-08 6.31565058e-08 6.06302422e-08 6.56827623e-08
      6.56827623e-08 6.56827623e-08 6.82090260e-08 6.56827623e-08
      6.31565058e-08 6.31565058e-08 6.31565058e-08 6.06302422e-08
      5.81039856e-08 6.56827623e-08 7.07352825e-08 6.31565058e-08
      6.06302422e-08 6.56827623e-08 6.31565058e-08 6.82090260e-08
      7.57878027e-08 8.08403229e-08 1.08629187e-07 1.61680646e-07
      1.91995767e-07 1.81890726e-07 1.43996829e-07 9.59978834e-08
      4.29464215e-08 2.52626009e-08 3.03151211e-08 2.77888628e-08
      3.53676413e-08 4.54726816e-08 5.81039856e-08 6.06302422e-08
      7.07352825e-08 9.34716269e-08 1.21260484e-07 1.31365525e-07
      1.26313012e-07 1.26313012e-07 1.21260484e-07 8.33665865e-08
      4.29464215e-08 2.02100807e-08 1.01050404e-08 1.26313005e-08
      1.51575605e-08 2.02100807e-08 3.03151211e-08 4.04201614e-08
      4.79989417e-08 5.05252018e-08 5.81039856e-08 6.31565058e-08
      6.56827623e-08 6.82090260e-08 7.07352825e-08 7.57878027e-08
      7.83140663e-08 7.32615462e-08 6.06302422e-08 5.55777255e-08
      6.31565058e-08 7.57878027e-08 1.01050404e-07 1.18734228e-07
      1.21260484e-07 7.83140663e-08 3.03151211e-08 2.02100807e-08
      4.04201614e-08 5.30514619e-08 8.08403229e-08 9.85241471e-08
      7.32615462e-08 5.30514619e-08 5.05252018e-08 7.57878027e-08
      1.11155451e-07 1.41470565e-07 1.23786748e-07 8.58928431e-08
      4.54726816e-08 3.78939014e-08 5.05252018e-08 7.07352825e-08
      9.09453632e-08 7.32615462e-08 4.54726816e-08 3.53676413e-08
      3.78939014e-08 5.05252018e-08 6.56827623e-08 9.34716269e-08
      1.18734228e-07 1.26313012e-07 1.01050404e-07 7.32615462e-08
      9.59978834e-08 1.49049356e-07 1.71785686e-07 1.43996829e-07
      7.57878027e-08 4.29464215e-08 2.77888628e-08 3.53676413e-08
      7.07352825e-08 1.06102924e-07 1.23786748e-07 1.18734228e-07
      9.34716269e-08 6.56827623e-08 8.33665865e-08 1.26313012e-07
      1.49049356e-07 1.69259437e-07 1.86943254e-07 1.74311950e-07
      1.38944316e-07 1.33891788e-07 1.11155451e-07 9.09453632e-08
      6.06302422e-08 4.29464215e-08 5.30514619e-08 6.31565058e-08
      6.56827623e-08 6.06302422e-08 5.05252018e-08 3.53676413e-08
      2.27363408e-08 1.51575605e-08 1.26313005e-08 1.01050404e-08
      1.01050404e-08 1.01050404e-08 1.26313005e-08 7.57878027e-09
      1.01050404e-08 2.02100807e-08 4.54726816e-08 8.33665865e-08
      1.01050404e-07 1.11155451e-07 1.08629187e-07 8.33665865e-08
      4.29464215e-08 2.52626009e-08 4.54726816e-08 6.82090260e-08
      8.58928431e-08 1.01050404e-07 9.59978834e-08 8.58928431e-08
      5.30514619e-08 3.53676413e-08 6.82090260e-08 7.57878027e-08
      6.31565058e-08 8.08403229e-08 1.28839275e-07 1.23786748e-07
      6.82090260e-08 4.54726816e-08 3.78939014e-08 4.04201614e-08
      4.79989417e-08 4.29464215e-08 5.30514619e-08 6.31565058e-08
      6.56827623e-08 6.56827623e-08 7.32615462e-08 7.57878027e-08
      7.57878027e-08 7.32615462e-08 6.06302422e-08 5.30514619e-08
      5.81039856e-08 5.81039856e-08 5.30514619e-08 4.54726816e-08
      3.78939014e-08 2.77888628e-08 2.02100807e-08 2.02100807e-08
      1.26313005e-08 1.01050404e-08 1.01050404e-08 7.57878027e-09
      7.57878027e-09 7.57878027e-09 7.57878027e-09 1.01050404e-08
      7.57878027e-09 1.01050404e-08 7.57878027e-09 5.05252018e-09
      2.52626009e-09 2.52626009e-09 2.52626009e-09 2.52626009e-09
      2.52626009e-09 2.52626009e-09 5.05252018e-09 2.52626009e-09
      5.05252018e-09 5.05252018e-09 5.05252018e-09 5.05252018e-09
      5.05252018e-09 7.57878027e-09 2.52626009e-09 5.05252018e-09
      1.01050404e-08 7.57878027e-09 7.57878027e-09 1.01050404e-08
      1.26313005e-08 1.26313005e-08 1.51575605e-08 1.76838206e-08
      2.02100807e-08 2.02100807e-08 2.52626009e-08 2.02100807e-08
      2.27363408e-08 3.28413812e-08 3.53676413e-08 3.28413812e-08
      4.04201614e-08 3.78939014e-08 3.78939014e-08 3.78939014e-08
      3.78939014e-08 3.78939014e-08 4.04201614e-08 3.78939014e-08
      3.53676413e-08 3.28413812e-08 3.53676413e-08 5.30514619e-08
      7.32615462e-08 1.03576667e-07 1.49049356e-07 1.97048294e-07
      2.07153334e-07 1.79364477e-07 1.64206909e-07 1.64206909e-07
      1.84416990e-07 2.22310902e-07 2.19784638e-07 1.94522030e-07
      1.74311950e-07 1.59154396e-07 1.56628133e-07 1.51575605e-07
      1.49049356e-07 1.36418052e-07 1.23786748e-07 1.08629187e-07
      9.09453632e-08 7.57878027e-08 5.30514619e-08 3.53676413e-08
      3.28413812e-08 2.77888628e-08 3.53676413e-08 4.29464215e-08
      6.31565058e-08 7.32615462e-08 9.59978834e-08 1.06102924e-07
      1.13681708e-07 1.13681708e-07 9.34716269e-08 8.33665865e-08
      5.05252018e-08 3.53676413e-08 2.09679598e-07 2.04627071e-07
      2.04627071e-07 1.99574558e-07 2.02100807e-07 2.07153334e-07
      2.09679598e-07 2.12205848e-07 2.09679598e-07 2.04627071e-07
      2.04627071e-07 2.04627071e-07 2.04627071e-07 2.07153334e-07
      2.12205848e-07 2.17258375e-07 2.24837152e-07 2.24837152e-07
      2.19784638e-07 2.17258375e-07 2.09679598e-07 2.07153334e-07
      2.12205848e-07 2.12205848e-07 2.09679598e-07 2.07153334e-07
      2.02100807e-07 1.97048294e-07 1.91995767e-07 1.91995767e-07
